2349 300
1823 -0.03727176 0.042236775 -0.0432052 0.039819323 0.09691091 -0.0054178815 0.13324337 -0.062660456 0.07619448 0.00017849263 0.030948855 -0.15959908 -0.0016997249 -0.011994342 0.11632745 0.015837077 -0.06621008 0.08981656 -0.07787488 0.038708843 -0.14692238 -0.014418166 -0.03106445 -0.049993668 0.045244046 -0.039813578 0.026309062 -0.08295287 -0.025711108 0.13317592 0.03814539 0.0536048 0.061306227 0.006389076 0.048117537 -0.0031384644 -0.02870665 0.038593933 0.046938695 -0.07216355 0.011346773 -0.084040396 -0.03973238 -0.0013613378 -0.10342252 0.0036617795 -0.025823377 -0.012516081 0.041287094 0.094309285 0.04667819 -0.03937564 -0.062486734 0.005913354 0.019103663 0.02036525 0.10249981 -0.065130204 -0.03243073 -0.0071130306 0.02854772 0.101167426 0.02538375 -0.013878034 0.08729728 -0.07071285 0.0031347955 -0.09027312 -0.0517992 0.0089356825 -0.0045891805 -0.037512567 -0.10548574 0.06805835 0.13211647 -0.0015327164 -0.08110828 0.20168655 -0.019493958 -0.047448307 -0.0242594 -0.09470348 -0.00048402484 0.007249789 -0.030214312 -0.004939912 -0.027611129 0.015348809 -0.00993456 0.012444495 -0.034895435 0.06318648 -0.02341994 0.06863255 0.021039056 0.03860063 -0.0014192692 0.031952932 -0.059112776 0.0075831464 0.061310146 0.031146111 -0.004803959 0.0061496426 -0.022800177 0.06262739 -0.02017667 0.044276062 0.0037679 -0.08056672 -0.0034529585 0.03834392 0.03761086 0.035649363 0.07775441 -0.009981136 -0.028011432 0.07882821 0.003564391 0.061552066 -0.025522564 -0.069409914 0.08601078 0.03784234 0.015402855 -0.0110238055 0.08060455 0.0090905335 -0.03027018 -0.016191786 -0.07370288 -0.07273636 0.026221275 -0.019144746 0.012001452 0.010023805 0.067875415 0.04090091 0.056369644 -0.054223724 -0.054624084 -0.004133156 -0.04055298 0.13458678 0.039159473 -0.032140046 -0.13949086 0.015490218 -0.07050384 0.06668396 -0.029379541 -0.11066373 -0.049366545 0.015575217 -0.018367467 0.06856938 0.0043440093 -0.03217761 -0.041421406 0.036403257 -0.058612816 0.06316687 0.033117443 0.061796445 -0.04892628 -0.08209824 -0.019379385 -0.15369141 0.053798445 -0.04717699 -0.05368368 0.09509456 0.04024678 0.0005071213 0.024798026 -0.03834358 -0.010535316 0.005248767 0.09301657 0.02638129 0.051893808 -0.025117861 -0.03247181 -0.122351386 0.04680814 -0.10089697 0.039972562 0.028508281 -0.036474828 -0.21037373 0.09526448 -0.01302732 -0.024058703 -0.040578716 0.02089804 -0.06118648 -0.005889175 0.011495017 -0.034340233 -0.048566293 0.03736922 -7.71462e-05 -0.05468092 -0.06480243 0.07995164 -0.028968833 0.011475861 -0.11321396 0.014514901 0.08148168 -0.011651401 0.07437535 0.04616804 -0.031931352 -0.050148398 0.029610978 -0.051539365 -0.11644475 0.05120681 0.060922872 -0.04112573 0.04696811 0.025364984 0.064819746 -0.054145664 0.0060829376 0.007835332 -0.023721475 -0.056365494 0.009043431 -0.09038361 -0.018378543 0.040759463 0.054124154 0.014138027 0.028448133 -0.07072326 -0.040764634 0.011389573 0.0013043564 0.034653764 -0.0104012145 0.011528351 -0.029965227 0.09232246 -0.10408303 -0.07922165 -0.009723302 0.036794648 0.012302822 0.015390627 0.016151166 0.09864521 -0.06931545 0.051235836 -0.10537981 -0.04246053 0.010660423 0.0057116747 0.0005668665 0.020143222 0.0052582053 0.021299368 0.030510725 -0.07048 -0.076431036 0.10906489 -0.07103799 -0.0651356 -0.001678798 0.020198498 0.0789959 -0.094003156 0.0106417425 -0.026112594 0.05541177 -0.009655334 -0.019098105 -0.013933018 -0.048403878 0.055102825 -0.06805492 -0.034700505 -0.040049125 -0.061406527 -0.004821577 0.020537646 0.030618235 0.031008303 -0.033718865 -0.021412618 -0.05878944 -0.1027283 -0.04518999 -0.009758541 -0.0062455153 0.04984022 0.12334313 0.03772681 0.010414264
1887 -0.03188688 0.114444874 0.028099364 0.080693714 0.050596032 0.06965461 0.18670087 -0.033970103 -0.025975527 0.032020487 -0.021156767 -0.034799814 0.102741204 0.06833544 0.051162545 -0.011498408 0.021232592 -0.037057947 -0.033663478 -0.009716809 0.04055918 0.019806715 -0.047182597 0.056560688 -0.009177455 -0.025949042 0.079520725 -0.1694898 -0.055195846 0.06716321 -0.03012391 0.08497929 -0.085790426 0.0019675994 0.0063162264 -0.00025932566 0.018846475 0.019905409 -0.030819464 -0.13033888 -0.01967171 -0.0017122013 -0.016707247 0.046900045 -0.13264681 -0.04204849 -0.09229021 -0.045945596 -0.020208882 0.07279372 -0.057560038 -0.12763512 -0.07521157 0.082771815 -0.09933548 0.10132279 0.09219532 -0.10854818 -0.106263906 0.015196956 0.010822497 -0.056434583 -0.030399246 0.00027342534 -0.022106886 -0.052466225 0.033579085 0.043210696 -0.006937634 -0.055949762 -0.0042611742 0.0029412212 -0.069073945 -0.033877812 0.06192176 -0.08146898 0.005291746 0.13951096 -0.052274548 -0.029645748 0.03124832 0.0010107323 -0.063841216 -0.108895205 -0.015432276 -0.020725429 -0.061267626 0.033914015 -0.02665718 0.0051806127 -0.0016433141 -0.07514108 -0.017536927 0.018611165 0.027014738 0.0729669 -0.008837733 0.00094603543 0.0046313885 -0.0336733 0.001767233 0.056312338 0.02195528 -0.014533405 -0.049749058 -0.00070701534 -0.016328838 -0.075235024 -0.10945053 -0.09426814 0.008556293 -0.059328865 0.037037544 0.07405518 0.022456905 0.017200395 -0.13379247 0.056059614 -0.030180328 -0.016661173 -0.026993778 -0.023263447 -0.072914526 0.15508522 -0.027233496 -0.052736904 0.024491446 0.02372299 0.008045698 0.037893344 0.007910188 0.01024865 0.03661217 -0.023589693 0.102317065 -0.038764272 0.123456605 -0.017695308 0.02113509 -0.019972412 0.026123105 -0.102382384 0.025791803 -0.04031853 -0.022805875 -0.023914339 -0.110904634 -0.0112935845 -0.03561789 0.053513892 -0.06088053 0.0054597547 -0.014890356 -0.08958994 -0.0341532 0.0056828777 0.02568147 0.0894962 -0.0248473 -0.031041568 -0.016673528 0.090096585 0.082117364 -0.06878076 -0.06489587 0.0024900842 -0.015558111 0.004893808 0.055603202 0.021982538 -0.13693585 -0.023288181 -0.004939639 0.0012241382 0.028105192 -0.019393751 0.029754117 0.0330304 0.06323248 -0.050739095 0.023417065 -0.08170846 -0.008842434 -0.0790668 0.074954025 0.013696598 0.012490205 -0.03454675 0.05527379 -0.050690506 -0.0537543 0.019540932 -0.06826281 -0.09980081 -0.015903842 -0.0021861792 0.04448061 0.05955391 -0.061889224 0.0018447231 0.071035154 0.010721601 0.03930727 -0.0007530928 0.006976666 -0.012262029 -0.030321201 0.027789945 0.041863576 0.13862072 0.013283407 -0.10323411 -0.0042059943 -0.044892013 -0.008708452 0.072382055 -0.043251917 -0.0118775675 -0.04793545 0.119146615 0.018491192 0.13282208 -0.015521635 0.0013945226 -0.038645096 -0.019142099 0.00593194 0.12771544 -0.049929947 -0.05503269 -0.0014607363 0.026215632 0.040317193 0.08785813 -0.017815793 -0.0340928 0.064045615 -0.010982665 0.034063 0.010557521 0.064378865 0.012642202 -0.022663837 -0.071746394 0.10449942 -0.021159591 0.011370232 -0.094956204 0.061561488 0.011272368 0.009105899 0.021420624 -0.11771389 -0.069171436 0.00012085328 0.0060925474 -0.08401118 0.052186858 0.06660768 -0.037908636 -0.07378519 -0.036249954 0.0045159743 -0.016271831 -0.052241724 0.085795276 -0.1457895 -0.054275513 -0.028331203 -0.03597154 -0.06241781 0.051298942 -0.043502294 0.04183496 -0.06175718 0.0021958393 -0.029590076 0.038479816 -0.010915098 -0.018086128 -0.039952774 0.101679206 -0.057508245 0.09957928 -0.012877575 -0.027957236 -0.0063713347 -0.024530305 0.040371906 -0.06723519 -0.02690004 0.032335486 -0.03984675 0.031440545 0.016077038 0.034769088 -0.017247386 0.13190481 0.04406 -0.029231679
1818 -0.010838896 -0.023616984 -0.037780575 0.059111107 0.07899515 -0.0069867843 0.0051100263 0.030823493 -0.015067034 0.051825274 0.029002707 0.1025212 0.043416858 0.04618645 0.06970313 0.05912419 -0.034225464 0.0059047514 -0.022638936 0.008160411 0.04515995 0.08997197 0.0036774373 0.055797357 -0.022325594 0.02905922 0.12177942 -0.010306915 -0.023517916 0.17376687 0.07902241 0.07517784 -0.02882872 0.06765623 0.036795564 0.0063516456 0.017594945 0.08800411 -0.045483574 -0.008964568 -0.03212845 0.042284556 0.069831595 0.094237596 -0.090738975 0.036568962 -0.018840304 0.09351919 0.06259533 0.06264978 -0.17196855 -0.012412095 0.00038961554 -0.014746137 0.12807277 0.0073582716 0.10643061 -0.00062390516 -0.048498794 0.048446324 0.041510582 -0.08498582 0.06634505 -0.0039859833 -0.060333088 -0.008131862 0.041628107 -0.030231534 -0.08470896 -0.027736625 -0.022005659 -0.0805653 -0.030049872 -0.030575829 -0.011963323 -0.021186683 0.09596186 0.11632273 0.013717912 -0.049124174 -0.03173077 -0.050576176 -0.09674754 0.00072088983 -0.029854514 -0.06563279 0.013298371 -0.012390542 -0.046556104 -0.020102244 -0.06401163 0.010775724 0.037397414 0.0016892559 0.04718351 -0.00033403054 0.035253737 -0.018315922 -0.0071076085 -0.09666196 0.03605102 -0.05130985 -0.09815406 0.0051625916 -0.022806495 -0.036996596 0.0018496219 -0.05834294 -0.0041629733 -0.08013235 0.011802829 -0.03279086 0.09079218 0.0023894075 0.00091613055 0.08725192 -0.015250888 0.023463894 0.004988338 -0.02021847 0.108255714 0.038548872 -0.09468407 0.02419077 -0.05420615 0.014990812 0.00817546 0.0036992326 -0.017179083 -0.06161859 0.13566896 0.038537096 0.007382518 -0.05915427 -0.03858332 -0.018419443 0.08191325 0.047295082 0.10553525 0.06617826 -0.07246246 -0.009768719 0.0897016 -0.01200287 -0.067090675 -0.05418315 -0.091657534 0.0060046227 0.12965703 0.073938794 -0.04015328 0.0076485677 -0.05365492 -0.011599826 0.015128704 0.0128817875 0.04252721 -0.028756145 0.025243316 0.054202545 -0.02014142 0.05408983 0.06804847 0.05663025 -0.0013675089 -0.059571907 -0.05776235 -0.021363912 0.03368179 0.049517315 -0.0032714528 -0.029037882 -0.07363809 -0.03358449 -0.03205514 -0.06253325 -0.038676355 0.008680915 0.011621865 0.018078316 -0.092723265 -0.031802297 0.09530443 -0.061743513 0.047120094 -0.011019855 0.07712115 -0.04979602 -0.056310773 -0.051027596 -0.13835312 0.03515949 -0.060969476 -0.16159505 -0.03418457 -0.05968606 -0.000121291785 0.012607858 0.0033661018 -0.02281717 0.074269764 0.03412521 0.080970205 0.023485174 -0.045751654 0.012048388 0.0011390906 0.048912387 0.08215559 0.09618649 -0.066674404 -0.057693485 0.01042875 -0.10339268 -0.13258871 0.10854587 -0.03706637 -0.09721349 -0.021561788 0.05461388 0.06925932 0.00023277893 0.0006858285 0.06730867 -0.084124096 0.00017181126 -0.041380975 0.015792418 -0.09208071 -0.07646114 0.0023865888 -0.0059606005 0.013393911 0.00026356938 -0.004978287 0.021427067 0.034973543 -0.10302669 0.061396275 -0.04470334 0.068441786 0.0007808147 -0.07060644 -0.06671226 0.078405924 0.03016222 -0.09689843 -0.023448871 -0.0119202025 0.08599184 0.062183157 0.007834128 -0.03293923 -0.019939117 -0.018174615 0.11418431 0.02141048 -0.05098033 0.016886378 0.04547763 0.13801336 -0.024193669 0.011325552 -0.040715102 -0.032930683 0.011749685 0.051748585 0.0073571345 0.015752207 0.004361267 0.0151735535 -0.015220281 -0.085468315 -0.025167914 -0.010977236 0.07747931 -0.044293463 -0.010359639 -0.03961034 -0.030805841 0.10738165 -0.035646744 -0.037328385 -0.10597784 0.032951348 -0.020093543 -0.064211346 -0.062333558 -0.06470339 -0.00092134444 -0.052287158 -0.14187638 -0.027122332 0.001062901 -0.017911643 -0.041327376 -0.043990277 0.13443835 0.048343297 -0.043181024
1653 0.0048912056 0.04646126 -0.064362794 0.110276006 0.072625816 -0.027935294 0.064195916 0.019207997 0.019401168 0.058261093 -0.03180154 0.06967211 0.015630081 0.06954254 0.046171222 0.03179862 -0.02364026 -0.002446937 0.02288882 0.015613295 -0.0045609716 0.07992011 0.0902767 0.05597568 -0.051408295 -0.01527093 0.057071816 0.0026882475 0.030688772 0.10776227 -0.08123664 0.031797066 -0.054035485 0.0075389524 0.06585475 -0.0013710802 0.015619208 0.093397014 0.04756554 -0.122734495 -0.075439155 -0.053452943 0.002753648 0.06554103 -0.14292623 -0.0017746341 0.036744308 0.07182083 0.026560249 0.05917382 -0.12434568 -0.065376945 -0.07206884 -0.00078649225 -0.09777974 0.09641048 0.05032414 -0.061553445 -0.08280009 0.057096384 -0.015172654 0.018328138 0.10250923 -0.065115266 -0.07444829 -0.057402153 0.019014725 0.049479935 -0.024076972 -0.07835133 0.048348784 0.015771344 -0.12690279 -0.07862528 0.026787078 -0.02131961 -0.0044959276 0.09609324 -0.04144412 -0.022733929 -0.015459313 -0.023000758 -0.036235463 -0.040006705 -0.14377473 -0.06808255 -0.016524153 0.012900342 -0.11269168 0.029367773 -0.04052594 0.048853796 -0.02268 0.0043526557 -0.0059412587 0.023820212 0.010820849 0.017662136 -0.03092721 -0.065177694 0.021778127 -0.017527735 -0.04163436 -0.032626376 0.021587482 -0.043121748 0.017732715 -0.06684367 -0.04990398 -0.09975912 0.091214076 -0.11055466 0.03748154 0.051403604 -0.030078467 -0.029051742 -0.03074013 0.029505085 -0.05772944 -0.0098232515 -0.04555193 0.07103647 -0.010069246 0.08331621 -0.00096157304 -0.02617969 -0.040345978 0.089884154 -0.010751473 -0.017257495 0.12575078 0.00414295 -0.034630675 -0.05646999 0.022355113 -0.005989404 0.13488992 -0.022749256 0.122280434 0.0041300384 -0.07705287 -0.06405079 -0.005377594 0.027629029 -0.039550535 -0.077678554 -0.08441054 -0.0026981062 -0.006602651 0.07090072 -0.025897216 0.010526796 -0.01452611 0.06066678 -0.046589937 0.03339205 -0.024476817 0.023049477 0.009902251 0.026252313 0.013328632 0.022819372 0.12180724 0.029488826 -0.04851189 -0.07630167 0.0018123386 0.010186423 0.078102864 0.0479068 -0.031313185 -0.03124208 -0.050238773 -0.0494327 0.026032126 0.015364278 -0.09816903 -0.0087341 0.06536723 -0.10280955 -0.06191539 -0.028770875 0.001827484 -0.111187026 0.044195805 -0.07479098 0.09297898 -0.05134251 -0.0127644455 -0.065015994 -0.13244236 0.009690915 0.05273534 -0.06959786 -0.013659445 0.045193218 0.032943156 -0.078385934 -0.065693446 -0.076429956 0.067211315 0.07238588 0.010033514 -0.018747905 -0.03646335 0.019994447 -0.0043962374 -0.024520917 -0.0029698506 0.0688851 0.02044134 0.023068104 0.009855129 -0.18948704 -0.05164596 0.0759641 -0.095878005 -0.09784171 -0.0137990415 0.07123639 -0.029693868 0.032881368 0.034601938 0.009192486 -0.10174582 -0.047369123 0.042229127 0.00025446079 -0.02992615 0.030033967 0.0025423346 0.014527171 0.07889872 -0.0011226708 0.025243 0.004112906 0.052812498 -0.12583074 0.080381446 0.059286784 0.0429441 0.026599327 0.022854248 -0.055022575 0.1062296 -0.016257087 0.064704604 -0.024289118 -0.18711618 -0.017707668 -0.043348163 -0.04666449 -0.024846591 -0.03334763 0.058140658 0.030691484 -0.013021184 -0.011995593 0.002759266 -0.029724468 0.06167533 -0.027760826 -0.01001302 -0.0052873148 -0.060620293 0.079817034 -0.041595366 -0.024249913 -0.022686327 0.045414492 -0.02310916 0.042508837 -0.06728813 0.030227082 0.013386389 0.040259283 -0.032516904 0.035293512 -0.0032380458 -0.055371504 0.1406467 -0.0939209 -0.027608575 -0.07465881 0.01419976 -0.009900721 -0.008212821 0.036146536 -2.2681754e-05 0.05888179 -0.033612303 0.032436736 -0.04999582 0.013844894 0.009699912 -0.05267039 -0.054526884 0.13674259 0.067642376 0.011370631
323 0.031358648 -0.011932254 0.002578585 0.053399645 0.034695663 0.050675653 0.09884586 -0.015029382 -0.036261633 -0.0101741515 0.0059176614 -0.015072724 0.035946764 0.07824523 0.027909143 0.009541903 -0.026629582 -0.0058679967 -0.047537833 0.015292308 -0.01873034 0.08692455 -0.0107445745 -0.08782426 -0.026860025 -0.027795987 0.07793706 -0.101421565 0.040053625 0.13763171 0.093876794 0.11380719 0.06495751 0.08458238 -0.04237526 0.016555568 0.015561781 0.04438034 -0.05454799 -0.07786368 0.020640159 0.013987037 0.10339757 0.00045741233 -0.12167555 0.006706304 -0.0735673 -0.011227421 0.010486479 0.05357614 -0.050756693 0.04918818 -0.04386602 -0.1109808 0.02955438 0.067079276 0.13414076 -0.060804736 -0.066234685 0.0046212506 0.09176176 -0.024796091 0.028716458 0.0031863719 0.047320075 -0.056732185 0.07844135 0.007952334 0.0021893636 -0.050254237 0.050644808 -0.08460699 -0.036575537 0.014373712 0.0653145 0.028242625 -0.115422405 0.06979646 -0.025606671 -0.061722733 0.0069386954 -0.07985485 0.05276925 0.04626647 -0.057768334 -0.016295712 -0.01613215 0.008805297 0.00796229 -0.012695852 -0.02434037 0.03363002 0.047619328 -0.0080658505 0.06982758 0.039995126 0.043209754 0.038790885 -0.12705241 -0.055605996 0.0003886275 0.0031737036 -0.0668304 -0.0055609024 0.0022105977 0.010464305 -0.091720544 0.027717454 -0.030019393 -0.033450566 0.03265459 -0.06897035 0.007939459 0.017747452 0.052875612 0.017480968 -0.07901209 0.014684708 -0.046230532 0.022091478 -0.010127281 0.05314797 0.0103115225 0.03909002 0.028516304 0.03997205 0.046870604 0.03565378 0.11592987 -0.014523421 0.11606867 -0.049629718 0.027334724 -0.034646325 -0.022218805 -0.05742074 0.09810507 -0.04852642 -0.027226213 0.042808555 -0.023046914 -0.011990611 0.04555579 -0.024552276 -0.056201655 -0.07928543 -0.13100626 0.045796864 0.043479837 0.11411699 -0.044946585 0.042182513 -0.06146863 -0.079198174 0.009629467 0.0657116 0.03683888 0.020185966 0.0042531095 0.11538958 -0.017805262 0.056798715 0.07362011 0.013536162 -0.022742748 -0.019009244 -0.06524694 -0.1405177 0.11603602 0.027763478 -0.0780253 0.012211372 -0.041152604 -0.043669973 -0.074303634 0.007060531 -0.019036738 -0.041684773 0.046375353 -0.04860992 -0.12669553 -0.050298277 0.059046388 -0.08902487 0.035509873 0.0070938086 0.02283117 -0.04577628 -0.03717167 -0.09319115 -0.011016801 -0.08322494 0.040284183 -0.13797757 0.03768847 -0.096178845 0.1158268 -0.04972685 0.0096274465 -0.053418666 0.026191143 0.016558513 0.0927319 0.078539744 -0.0037279753 0.054959152 -0.022393703 0.05486969 0.095491424 0.1104445 -0.07901229 -0.007236725 -0.030819703 0.017041862 -0.09189476 0.014079147 -0.0005440492 -0.15624419 -0.11469457 0.083580434 0.06349367 0.07866606 -0.028393622 0.09567295 -0.08950927 -0.1071563 0.035763443 0.019035494 -0.06967121 -0.0681626 -0.010887004 -0.026428131 0.06405628 0.08859105 -0.046141304 0.0014480117 -0.013735074 0.062389232 -0.039876252 -0.044571765 -0.046509244 0.00874119 -0.012238233 -0.059102148 0.075519696 0.0073242257 -0.07425931 0.04452856 -0.014547066 0.08563908 0.043080326 0.02309654 -0.0104747005 0.02131639 -0.025818167 -0.038153466 -0.019045195 -0.07091093 -0.03764384 -0.020323202 -0.022254694 -0.023624253 -0.014087836 -0.10714749 -0.03270265 0.03014816 0.12772226 0.07235117 -0.06778473 -0.0042745955 -0.038551107 -0.0037647968 -0.07698105 -0.009280432 -0.032662254 0.031458464 -0.03797249 0.0073170564 -0.020162743 -0.008732089 0.098336056 -0.07860158 -0.029451936 -0.0056168064 -0.11764199 -0.029831313 0.010997408 -0.020050935 0.038306277 0.03678743 -0.05678705 -0.016602969 -0.048238 -0.039455917 0.038885448 0.027357493 0.0042875553 0.09907375 0.010806246 -0.038597398
2138 -0.018702585 0.04876528 0.006193107 0.055320546 0.057672314 0.027624134 0.11663799 -0.09921625 -0.0048513412 0.058953613 -0.0007779524 -0.001018554 0.05075189 0.0054190205 -0.04480929 0.05562751 -0.05137175 -0.020825444 -0.05463466 -0.0038350616 0.012499344 0.0463652 -0.05776476 -0.030184757 -0.0029789596 0.0072508752 0.050467186 0.03806938 0.007888801 0.11514309 0.04058995 0.080571376 0.025165426 0.0142785655 0.06525022 0.04254879 0.004344475 0.04221185 -0.019814976 0.017778082 0.020245073 0.03462629 0.035195537 0.033645857 -0.122317225 0.0071088364 -0.12494566 0.048000693 -0.018919267 0.008462297 -0.013764506 -0.09488902 -0.017823 -0.042491946 0.048571263 0.04042959 0.018200023 -0.07346219 -0.046770062 -0.02839712 0.07373771 0.018891232 -0.042009883 -0.018683137 -0.018253116 -0.05497933 0.006274688 0.047178484 -0.10049096 -0.024072427 0.0567692 0.055900507 -0.017040364 -0.0183918 0.024115216 0.05936767 -0.014704676 0.08952642 -0.012419829 -0.055819616 0.010459168 0.038501985 -0.055405237 -0.071019046 -0.0009311137 -0.017826293 -0.010132534 0.025519144 -0.04514522 0.0068587055 -0.054458477 -0.023805654 -0.028876824 -0.022778146 0.012907372 0.03044546 0.028646525 -0.01233287 -0.0065599764 -0.035651445 0.050663557 0.06692666 -0.010689706 -0.028238453 -0.00026815198 0.026165936 -0.012139723 -0.08691106 -0.06952607 -0.03641829 0.029025696 -0.045769904 0.026936498 0.036511265 0.061272793 -0.04355495 -0.02169011 0.023844268 -0.039377358 0.025448851 -0.05362004 0.07671206 -0.04445474 0.018597689 -0.012962171 -0.01145414 -0.013623517 0.08391714 -0.04935924 -0.028345449 0.058973018 -0.01393516 -0.0853134 -0.018304836 -0.013357527 -0.059799917 0.098843195 -0.025260692 -0.0011728983 -0.02363834 -0.031579178 -0.0560168 0.005892399 0.0169225 -0.04036072 -0.057912394 -0.11326752 0.033553183 -0.028617732 0.07884769 -0.032697305 -0.010338696 0.010691922 -0.012093127 -0.08446203 0.031448156 0.03749522 -0.034689263 -0.03401777 -0.030892305 -0.030470546 0.091500014 0.06567655 0.0011174995 -0.028765019 -0.09788905 -0.03907135 -0.041516673 0.060100958 -0.025571879 -0.09562632 -0.030152716 0.006272925 -0.024561398 -0.062301062 0.016508564 0.005130345 0.03750565 0.06703769 -0.041968442 -0.028062515 -0.048375513 0.020576768 -0.06902988 0.026688593 -0.023549713 0.06668826 -0.015430906 -0.01387052 -0.037171945 -0.03538803 -0.0035676963 -0.104842946 -0.07833942 -0.010451512 -0.036666457 0.046881534 -0.0022783894 -0.116415076 -0.020918045 0.049313217 -0.0051599764 0.045896947 0.023615062 0.016277835 -0.020594811 0.002247136 -0.074702464 0.029103324 0.09696779 -0.052484684 0.0013465881 -0.0045359544 -0.07182424 -0.050078344 0.02963736 0.014505081 -0.101074666 -0.0030213129 0.032201212 0.008139126 0.11022082 0.002033364 0.08496323 -0.06758593 -0.027283113 0.055866484 0.068046354 -0.062825926 -0.00974923 0.0062654642 -0.006848992 0.02980319 0.009345077 7.1926974e-05 0.011487429 0.03849065 -0.0053586625 0.04234999 -0.02295876 0.019379267 0.0033895816 0.019859707 -0.054806657 0.08592366 -0.06557415 -0.04018358 -0.010719257 -0.010243042 0.05176851 0.052095488 0.037521515 -0.029537875 -0.01552775 0.057786036 -0.0944884 -0.039229564 0.07095915 0.026067734 0.0023456365 -0.04646697 -0.02004474 0.00022052228 0.01215459 -0.05908849 -0.024609946 0.046926674 -0.011032062 -0.050440677 -0.0038817087 0.006193429 0.023635771 -0.08146474 -0.013455031 -0.06460483 0.041500233 -0.06817211 -0.013360103 -0.026753146 -0.057376333 0.049514733 -0.0247175 -0.04798437 -0.009708267 -0.045361035 -0.034337074 0.00026014773 -0.0040142112 0.03670178 0.017228875 -0.04650844 0.011665746 -0.057045065 -0.04977081 0.03836791 0.0071517006 0.027393933 0.1335634 -0.022566583 0.0706889
2261 -0.0110815875 -0.0010052461 -0.0031892078 0.048897147 0.061739314 -0.027896065 -0.03979569 -0.053574108 -0.030736629 -0.054010347 -0.100322455 0.06308893 0.004919298 0.0048020547 0.08111779 0.09743998 -0.021694547 0.05031405 0.019598424 -0.028652975 -0.039899535 0.05537273 0.03640707 0.075065285 -0.026599677 -0.05564647 0.02400038 0.018654043 -0.0025301883 0.1490222 0.03107823 0.018903786 -0.046350688 0.10813771 -0.080113485 0.00065871933 0.04437477 0.08409874 -0.017731613 0.058576893 -0.09553883 0.03690842 -0.08387218 -0.010380774 -0.121939704 -0.0054133814 0.026767325 0.009818874 0.011219091 0.0057956493 -0.08893381 -0.078168824 -0.08841628 -0.030852629 0.03700998 -0.013923643 0.012810318 0.013585963 -0.026426764 0.13678907 0.070772834 0.019025216 -0.050939094 0.035421073 -0.04736769 -0.06366536 -0.0006409895 -0.006779339 -0.04794365 -0.14006062 0.031127565 0.026590213 -0.036619745 -0.013171891 -0.13658257 0.07951734 -0.026873956 0.0447072 0.039794058 0.0017567516 -0.06520858 -0.008943271 0.056425676 -0.13618495 -0.029459635 -0.20717205 -0.047113527 -0.037086356 0.04746253 0.024290012 -0.053086538 0.10308709 -0.02420351 -0.03527331 0.060754836 0.00042920106 0.030139633 0.061968412 0.04026344 -0.107711 -0.027910814 -0.01430903 -0.08168915 0.0076615456 -0.00022389826 0.052860267 0.032717906 0.103773996 0.077381104 -0.03932246 -0.022972317 0.015748326 0.031855214 0.018955177 0.012404624 -0.047016516 -0.030196525 0.100716196 0.027363427 -0.035696685 -0.05801179 0.06436518 0.057809863 0.00046425223 0.039905187 -0.017651023 0.020560518 0.10351872 0.018229118 -0.04261392 0.0383266 0.04556664 -0.03414127 -0.056976438 -0.06548568 -0.049379505 0.06444968 0.05609064 0.05779045 0.0093692755 0.011675029 -0.084529005 -0.022990163 0.06201238 -0.033574596 -0.05411729 -0.11972643 0.07569644 -0.08609995 0.09077887 -0.046248175 -0.033177923 -0.012670173 -0.0538846 -0.0996664 0.024211321 0.0044537596 -0.004374659 -0.017717857 -0.0052755703 -0.08280509 0.021002587 0.02155407 -0.030575268 0.00024182616 -0.051211376 0.090229936 -0.008201356 0.06896947 0.04808064 0.013913823 0.060902063 0.059847075 0.086422205 0.012079037 -0.1409271 0.0029509293 0.038277246 0.083218984 -0.043543268 0.041564256 -0.05386617 0.0409341 -0.05586551 -0.0013274043 -0.015302464 0.116151914 0.020386918 0.055445023 -0.05659336 -0.018518912 -0.06470927 0.043566056 0.006512396 -0.075878516 -0.014073617 0.08501938 -0.021854019 -0.02040263 0.03539215 0.014573859 0.014253079 0.07188127 -0.027249958 -0.0027457764 0.00826843 0.014036676 0.05070522 0.096618764 0.05556721 -0.065633975 0.076979965 -0.030117095 0.06512952 -0.11297784 -0.055499773 0.06381019 -0.112162426 -0.0064210347 0.06322925 -0.04573654 0.07602931 0.05193167 0.12159092 -0.07362511 -0.027476965 -0.0049733077 0.040826723 -0.017638637 -0.10242092 0.13937333 0.05088921 0.025670698 -0.054156218 0.03942444 0.0017023595 0.032138616 -0.043722425 0.077509485 -0.089017406 0.04762399 0.0107047595 0.041888475 -0.02078371 0.098385796 -0.012301394 0.028191922 -0.041143302 0.028562607 0.06201567 0.028503677 0.021776354 0.009362539 0.01411105 -0.0668422 -0.022113137 -0.03176714 0.0028746154 0.082149975 -0.105724394 0.0031893358 -0.05442357 -0.0054333545 0.007191877 -0.011258372 0.097270384 -0.022736 -0.008917114 0.04826539 -0.039092842 -0.07616422 -0.026010405 -0.075342655 -0.007224227 -0.047040638 0.06150459 -0.03664402 -0.021314282 -0.07016446 -0.07176874 0.04653139 -0.03657272 -0.002689784 0.07918798 0.064912535 0.0035050912 -0.055560723 0.057629347 0.023105536 0.017745817 -0.0711834 -0.042570025 -0.117702 -0.03695271 0.033273667 -0.056874767 -0.073513076 0.09867718 -0.014345721 -0.08118744
1168 -0.03393611 0.0555921 -0.020707097 0.08657423 0.04766828 0.035159025 0.11569236 -0.03978288 -0.08755266 -0.0023323223 0.013864449 -0.0028269924 0.028796436 0.06775138 0.04944934 -0.019909855 -0.022782631 0.0011040326 -0.027903128 -0.015218621 0.046134897 0.0072306907 -0.0035737846 -0.033071242 -0.018108906 -0.018109769 0.0654764 -0.12397994 -0.051367104 0.08932801 0.02712261 0.04735789 -0.06414842 -0.06284754 0.012667553 0.005628982 0.005271215 0.0066604223 -0.00420902 -0.08882128 -0.0506715 -0.008102235 0.0036266632 0.003495384 -0.107455865 -0.015888903 -0.069024906 0.01459478 -0.0035139667 0.09975509 -0.042593554 -0.05598072 -0.029868426 0.007343538 -0.10493219 0.060311176 0.08812576 -0.09222534 -0.08733594 -0.009429067 0.005622786 -0.036753573 -0.015796827 -0.0062360964 -0.035059266 -0.03355842 0.047938924 0.06716389 0.00558227 -0.07661921 -0.00929356 -0.02027361 -0.059336334 -0.0023969132 0.0013735909 -0.062176958 0.045612223 0.13211323 -0.049462087 -0.038552016 0.004970543 -0.0018115793 -0.021436188 -0.10481188 -0.065745264 -0.041904874 -0.034267195 0.0071890857 -0.004902725 0.031842776 -0.028657833 0.009074107 -0.02372346 0.041760758 0.023457315 0.06623567 0.0072118538 0.036805835 -0.018435251 -0.008396307 -0.021510651 0.01645881 0.04114283 -0.006951882 -0.0029947273 -0.018800694 0.0014621243 -0.036753356 -0.078306325 -0.07178427 0.047577035 -0.021350913 0.0013092272 0.06838226 0.013559672 -0.012432836 -0.089258865 0.042949177 -0.024983615 0.003934617 0.030390898 0.03581513 -0.04972573 0.10426939 -0.00022033602 -0.020887613 0.061447542 0.0041089435 0.030293189 0.066695444 0.056088112 -0.004210883 0.048651513 0.010708684 0.062029827 -0.016496122 0.075222254 -0.06511378 -0.002932502 -0.014384922 0.011715323 -0.092620805 -0.011040741 0.041046128 -0.03987306 -0.041515317 -0.13165972 -0.0055689807 -0.051340334 0.07223267 -0.010063894 -0.03450887 0.03908976 0.0024756491 -0.016111687 0.014863208 0.045681283 0.086609855 0.0074718436 -0.0032579936 -0.052904893 0.06545543 0.08481012 -0.065928444 -0.037029378 -0.03708874 -0.018009476 -0.020102454 0.0005870089 0.032761525 -0.11465749 -0.029493991 -0.020345826 -0.0035322893 0.017144538 -0.047806 0.012378774 0.032932207 0.05813615 0.014966603 -0.034741577 -0.01697528 0.04553052 -0.058890685 0.063321166 -0.0101689985 0.032059114 -0.033895954 0.05747397 -0.010923661 -0.11499957 -0.028146638 -0.12623179 -0.045404844 0.025878968 0.031802583 0.06502948 0.03218521 -0.07422772 0.0035656784 0.08144802 0.0104404185 0.008356543 0.020622151 -0.016499389 -0.038417477 0.0009072395 0.023777526 0.025509581 0.10852978 0.000104087405 -0.040751293 0.0078880815 -0.030972699 -0.037192967 0.10039216 -0.020859227 -0.0070000514 0.0035829116 0.052305646 -0.004467044 0.06709521 0.008515878 0.023485081 -0.04222788 -0.0052850894 0.043807074 0.14069253 -0.019277817 -0.06228482 -0.015503697 0.018976029 0.034476154 0.13886136 -0.022538975 -0.03181403 0.05016817 -0.02275653 0.025978941 0.008020051 0.049115613 0.030800078 -0.034182537 -0.07566203 0.07868412 -0.011982127 -0.0015999041 -0.045607988 -0.0061747953 -0.0056427284 -0.011339948 -0.0082490165 -0.063684665 -0.100288406 -0.00924028 0.016985968 -0.058215007 0.028476955 0.048547614 -0.050676078 -0.012333453 -0.0115319565 -0.00064293947 -0.009797294 -0.047827467 0.014231842 -0.07624109 -0.03078449 0.0737309 -0.0032330183 -0.047810975 0.0134678725 -0.006145321 0.018743934 -0.047000363 -0.01779644 -0.01615754 0.04039359 -0.007873065 -0.012784216 -0.011624307 0.041261017 -0.06437841 0.02307061 0.004660359 -0.0012721336 -0.02446191 -0.023894213 0.014389416 -0.03713536 0.0136499 0.017426703 -0.015212517 0.046788685 0.0032951199 0.002903467 -0.010130705 0.07910804 0.061642297 0.011712359
1028 -0.0014392181 -0.007307369 0.016399788 0.07980994 0.119129516 0.020309225 0.052770764 0.013683592 -0.00021627733 0.048290733 -0.0034402634 0.0165361 0.09865787 0.04711747 -0.048405737 0.059956063 -0.013303176 0.0032189037 -0.040546037 -0.007916028 0.07515625 0.09771883 -0.093128935 -0.02131346 -0.03136296 -0.01931771 0.10146656 -0.1138564 0.02265972 0.18792805 0.01703596 0.029758623 -0.021890571 0.0019186381 -0.07195721 -0.034320742 0.016120164 0.07199677 -0.022509735 -0.104148954 -0.029656934 0.047702655 -0.0031010113 0.15842342 -0.11627764 0.009928641 -0.030875806 0.018115308 0.095608346 0.1658485 -0.029683022 -0.0064689685 0.015358039 0.01418784 0.084042005 0.041379265 0.122784406 -0.039711773 -0.077327535 0.018752987 -0.011491471 -0.10309856 -0.07970562 -0.008451822 -0.061178762 0.019593066 -0.022439102 0.011014774 -0.037946854 -0.16721918 0.06909194 0.054029718 0.020307086 -0.09420402 -0.035663664 0.06786178 0.07253403 0.06671165 -0.027044311 -0.06440501 -0.02552881 -0.0037424497 0.031034343 -0.038386427 -0.008090017 -0.06753409 -0.0019228159 0.026095092 -0.09109044 0.016926313 -0.05488856 0.021506272 0.03825085 0.010721729 0.014538778 0.031617694 0.026470508 0.092272 0.0314365 0.035686694 0.029535204 -0.00044579225 -0.0006253792 -0.012935994 0.12580217 0.088778615 -0.022722805 -0.03149188 -0.07314847 0.028150288 -0.006882381 -0.06971863 0.06000493 0.04438979 0.05193561 -0.015132112 -0.044214696 0.07228263 -0.04957774 0.028603498 -0.01834235 0.09577684 -0.0918916 0.08510331 -0.04347354 0.0305448 -0.020996379 0.07817841 0.025462303 -0.04303525 0.1139609 0.025745763 -0.016567688 -0.019507624 -0.010030654 -0.011656085 0.08872206 -0.0029359588 0.032606296 -0.031599425 -0.029771969 -0.04655902 -0.011710098 -0.05209891 -0.07456937 -0.090881884 -0.11271436 0.029712003 0.020031996 0.12584515 -0.031151827 0.06811992 0.02851573 0.06853418 -0.0594118 -0.024922673 0.052118372 -0.027842771 -0.027251262 0.026534604 -0.10191929 0.016614968 0.076697305 0.019882936 -0.010423389 -0.08831543 -0.01912782 -0.053573627 0.016629705 -0.056008022 0.0025628214 -0.013056197 -0.03574279 -0.13944574 0.02941655 0.00545456 -0.048597127 -0.048959166 0.004283337 -0.056342807 -0.14024986 -0.048652057 0.028435258 -0.081177406 0.021816622 -0.04661577 0.0901513 -0.04195281 -0.08319219 0.030853953 -0.111183584 -0.036441673 -0.09992467 -0.08241239 -0.10253819 -0.02863883 0.04330902 -0.030473407 -0.023234928 -0.01918615 0.042866353 0.008596695 0.074651755 0.0036545116 0.046464838 -0.028293537 0.013501827 -0.1059488 0.05472601 0.08275841 -0.04145713 -0.022242272 0.058241937 -0.0573737 -0.1105218 0.05468161 0.010073415 -0.05115142 -0.06671268 0.02365891 0.1413827 0.03397538 -0.03327514 0.051614337 -0.09480851 -0.00081151346 0.10792449 0.05928531 -0.06033862 -0.013251629 0.0142637575 0.038872328 0.017223958 -0.03563042 0.009158953 0.0001448576 -0.007535099 -0.0076374384 -0.0025430229 0.05507798 0.025139209 0.009628549 0.019248541 -0.05381546 0.063527726 0.03398019 -0.028751036 -0.015511951 -0.0015613775 0.039000746 0.04384625 0.00792797 -0.0041816593 0.043968264 -0.029505692 -0.063408755 0.009334899 -0.004283569 0.073509805 0.011382811 0.004343361 -0.0034961866 0.030473405 -0.05936865 -0.07060684 0.0518117 -0.09014381 -0.0023243916 -0.03907017 0.005011621 0.063757844 0.017415253 -0.062066868 -0.025055766 0.005186348 0.06787719 -0.06658915 -0.018057687 0.013782199 -0.0470584 0.047650974 -0.055092182 -0.046559356 0.015373381 -0.08470571 0.03338717 0.019838082 -0.04462697 0.03724485 0.07566763 -0.045823064 -0.08210925 -0.07227625 -0.09980787 0.018086554 0.017970935 0.045444418 0.12974547 0.009050416 -0.047842402
2333 0.0008798726 -0.0129344305 -0.01664095 0.087153725 0.047142796 -0.007465197 0.02590704 0.012224749 0.024797877 -0.0319501 -0.047781453 0.041612484 0.023098331 0.067848496 0.07108833 0.063857324 0.0013185758 -0.06284244 0.0009544585 0.0011627127 -0.038496815 0.029728074 0.019159134 0.04482545 -0.0093668755 0.0172531 0.06735451 0.054324344 -0.06045329 0.13547115 0.033718463 -0.015789717 -0.0121335685 0.019512042 0.01500712 -0.048297983 -0.005561257 0.10942183 -0.0441132 -0.03314057 -0.0667963 0.039758835 0.036823794 -0.0007025502 -0.09069898 0.041872453 0.015993135 0.052378237 0.05579313 0.08608426 0.05212508 -0.020116424 0.038161438 0.025762262 0.085574195 -0.010681184 -0.061217237 0.027757633 -0.07886997 -0.03189379 -0.06253316 -0.02206861 0.038328204 -0.009515952 -0.061257754 0.010347591 -0.037683256 0.00026837923 -0.031195797 -0.10324416 -0.012514875 -0.024769558 -0.01879913 -0.0015183128 -0.08496163 0.109179564 -0.07835536 0.027739713 -0.01089705 -0.061571494 -0.013401643 0.04643181 -0.0062825177 -0.032392997 -0.0108017605 -0.017434228 -0.00035904953 -0.0074730096 0.03227386 -0.026858337 -0.046165727 0.073516116 0.045192942 -0.050825242 0.07435971 0.040330082 0.026771737 0.028521653 0.045559138 0.07509323 -0.028907867 0.038448725 -0.039396547 0.010093422 0.006148941 0.010097358 -0.008002805 -0.031024981 -0.0009208061 -0.056515962 -0.040801372 0.0184145 0.037562788 0.047147296 0.02888859 -0.09495239 -0.028828051 0.061848782 0.021391487 0.049257092 0.014867753 0.095007166 -0.001909459 0.055253133 0.015506451 0.03193087 -0.010423545 0.10770011 -0.013414151 -0.02285213 0.032514807 0.029550634 -0.019142888 -0.021226209 -0.005303358 0.016009172 0.07489689 -0.08335821 -0.008688928 0.003640147 0.0009617824 -0.09407681 0.015540446 0.025053684 -0.059075635 0.0024842208 -0.103702515 0.0675799 -0.01747969 0.04234174 -0.045155574 0.04320614 -0.038614675 0.033179224 -0.07391851 0.019330515 0.027954694 -0.019698776 0.022286734 -0.054437492 -0.09489444 0.061981365 0.049710236 0.042768165 0.03392431 0.028260011 0.069583245 0.031061403 0.04100312 0.09229271 0.013894966 0.05202107 -0.07778849 -0.046589248 0.051894218 -0.06587167 0.05279823 0.07739116 0.011878567 -0.012251693 0.007452173 -0.03883717 0.064412564 -0.09042549 0.10471088 0.047337923 0.06682673 -0.025355961 0.01902063 -0.089508176 -0.08112827 0.0017959028 -0.03640726 -0.0773862 -0.048951708 -0.030499155 0.088176675 0.039789714 -0.05008588 -0.0244636 0.009560425 0.007796639 0.014535831 -0.010295335 0.004563365 -0.08645349 -0.0308312 0.03683702 -0.0053112875 0.094139546 -0.03955444 0.015851494 0.050970193 0.0067483345 -0.03152198 0.019073151 -0.05256829 -0.04338106 -0.02172628 0.02606213 0.048966397 0.031693853 0.02049304 0.05691363 -0.065232314 -0.02566583 0.032606423 0.07434724 -0.079012364 -0.03550954 0.013402415 -0.017523952 -0.023160819 0.042188782 0.0009462801 -0.038617194 0.051266074 -0.052715246 -0.057342395 -0.015899353 0.033232916 -0.014242867 -0.049119398 -0.06538886 0.071471825 -0.04148189 -0.051297307 -0.008253645 0.04229449 0.031903602 0.046592586 0.0130503755 -0.049088314 -0.023213746 -0.041483667 -0.0005171215 0.017379757 0.020023957 0.07126375 0.015144027 -0.0017476256 -0.0032597007 0.00942986 -0.0086218305 -0.044504996 0.026655298 0.06268984 -0.004594313 -0.057440687 0.00033370266 -0.03552851 0.0115073975 -0.054771025 -0.02061991 -0.020924395 0.09980115 -0.014731221 -0.0048929155 -0.026636448 -0.046864476 0.049841736 -0.023167394 -0.059506718 -0.0010378528 -0.010968689 -0.022266496 -0.013661747 -0.036571268 0.022850063 0.019645173 -0.028217487 0.028836675 -0.025654536 -0.03807498 -0.016074568 0.04722171 -0.011307491 0.07975818 -0.017582992 0.018505266
2273 0.02192369 -0.02186974 0.004554377 0.09970565 0.055238046 -0.016137898 -0.02752433 -0.056583438 -0.04897216 -0.019733561 -0.014187122 -0.034295756 -0.054821245 -0.035212502 0.008333219 0.05977818 -0.008724841 0.01560771 -0.072951876 -0.029335564 0.061263103 0.036114257 0.05528078 -0.07125417 0.0037726285 -0.03529618 -0.018902006 0.062396348 0.06397772 0.14102675 0.050851382 0.014653662 0.10090013 0.029468559 -0.03281578 0.10567431 0.030344037 0.09641394 -0.009972855 -0.14317364 0.054764614 -0.006034132 -0.01525243 0.0020219577 -0.11294906 0.042703725 0.03007213 -0.041357923 -0.05634264 0.06650397 -0.024001807 0.031328045 0.0029172227 -0.013812713 0.03072283 -0.032831732 0.0508743 0.058710027 -0.052763566 0.018096386 0.08614394 -0.012691574 0.033643704 0.0016685316 -0.00436455 0.075819224 -0.00064160244 -0.028959759 -0.06463254 -0.05461179 -0.030089011 0.042541277 0.020371398 0.024767552 -0.006380502 -0.03248541 0.019932393 -0.046876997 -0.009381218 0.016826103 0.0008361628 -0.009948403 0.014964897 -0.062283568 -0.026060741 -0.01608532 0.0570955 -0.036976136 -0.0057316953 -0.03950298 0.009691546 -0.012662189 -0.027152382 -0.048345026 0.0025919555 0.001973575 0.0990838 -0.11354849 0.04241087 -0.072653055 -0.07760695 -0.07037367 -0.03270701 -0.016118174 0.03939584 -0.0010334179 0.010568627 0.011424898 0.027628615 -0.08378286 0.054092474 0.0076060444 -0.0023900988 0.05134798 0.042400762 -0.05776726 0.0035453066 0.010423603 -0.09480768 -0.13093817 0.097032174 0.03667376 -0.06321744 -0.02174827 0.031229645 -0.020040069 0.03830179 0.054678854 0.0165498 -0.044444013 0.041359026 0.0033237226 0.03309327 -0.028723417 -0.047230847 -0.043943718 0.100039914 -0.015028026 0.04181185 0.10723992 -0.016846735 -0.034018733 -0.00683413 0.038179573 -0.018257074 -0.028458785 -0.12630738 -0.008594461 0.013721375 0.006046636 0.0071757976 0.008616595 -0.006671824 -0.044847008 -0.111379236 -0.0008187457 0.010336019 -0.0082011465 0.029066194 -0.11077869 -0.017816275 0.060802806 0.026083479 -0.010952954 -0.04882603 0.009262026 -0.04562827 -0.0006993618 0.092445746 0.04245455 0.05873067 0.059063077 -0.023126235 0.0023046904 -0.018763768 -0.03526138 0.015032656 0.020323684 0.06380825 -0.04232593 0.07353025 -0.02322242 0.035493452 -0.057722222 0.025507094 -0.055200092 0.0498676 -0.013500482 -0.008420762 -0.05151563 -0.03547561 -0.03154921 -0.028019162 -0.07363075 -0.02399566 0.018845396 -0.036948834 0.022747362 0.01984903 -0.021363936 0.044508465 0.02914283 0.048518013 -0.05922715 0.016059913 0.08271289 -0.031884566 -0.022659084 -0.029863285 0.078113735 -0.03897349 -0.0349263 0.0040426003 0.0169463 0.027382001 -0.053463817 -0.018277863 -0.06861655 0.10975614 0.004524598 -0.020352222 0.023668515 0.0031219206 0.018214159 0.029622737 -0.02277619 0.06810466 0.092484415 0.022833249 -0.013348719 -0.005350112 0.024928547 0.0055061565 0.018111123 0.012189939 -0.017872961 -0.03589388 -0.020150702 0.005077 -0.028674081 0.023826761 0.018412735 -0.0006869403 -0.058452703 0.058128126 -0.022765756 -0.025140524 -0.007705534 0.012056247 0.045576602 -0.01636699 0.019557497 0.024479046 -0.019619271 -0.029634185 -0.019791957 0.0006583097 0.017293721 0.053747952 0.013587307 -0.012869297 -0.04146392 -0.015328627 0.018269155 0.031301256 -0.03295897 -0.058730766 -0.093588896 0.04648784 0.056266546 -0.045027804 -0.013714181 -0.049133435 -0.006391621 -0.12600039 0.011934903 -0.043085117 0.00674021 0.025045972 -0.0052048666 0.0729026 -0.085813954 -0.028248176 -0.013625298 0.058987543 0.0064276503 0.0016771778 -0.0074920626 -0.0446635 -0.043672882 -0.01751846 0.029775327 -0.067641124 0.108982295 0.027699025 0.002509715 -0.026772141 0.1308355 0.028798165 0.054916583
195 -0.011103656 -0.029217064 -0.050700285 0.07811124 0.01960567 -0.027258776 0.07617935 -0.01563038 -0.059943046 -0.0020688677 0.038544916 0.07298448 0.049589492 -0.008502416 0.12607336 0.094070196 -0.0025848546 -0.03895945 -0.0218158 -0.0077956473 0.005854477 0.026466548 -0.06403092 -0.023637202 -0.026873842 -0.0018076308 -0.0101443995 0.012808652 -0.004432343 0.12397152 0.039747316 0.033505235 0.1344244 0.03788822 0.0066143814 -0.018200394 -0.023614263 0.07992251 -0.00026084814 -0.0045119105 -0.048526194 0.008681673 -0.0011156145 0.09568142 -0.088853344 0.07923101 0.033280432 0.0835887 0.06259032 -0.024029752 -0.13347402 -0.0077820746 -0.010034597 0.019380478 -0.110873386 -0.05869393 0.018588422 -0.07539363 -0.039523058 -0.045098867 -0.07342594 0.02255569 0.06197583 -0.011321233 -0.13438779 -0.03908078 -0.011562449 -0.015288921 -0.026723266 0.012415688 0.010520712 -0.047247242 -0.08949438 -0.02644481 -0.004327415 0.057025418 -0.0787337 -0.0081368275 0.0056092665 -0.07967218 0.024079893 -0.09190368 -0.14247812 -0.039402068 -0.06600764 -0.029126579 0.014046398 0.009984423 -0.14940159 -0.029141445 -0.038451783 -0.022596283 0.009090492 0.098805554 0.019974748 0.0074353307 0.07739371 0.015783936 -0.0073449723 -0.08677376 -0.043795902 -0.012487333 -0.07218142 0.007185771 -0.079500325 0.0002496704 -0.050772924 -0.0018518254 -0.126269 -0.09864925 0.007875203 0.07912552 -0.07352758 0.020847306 -0.056084126 -0.015923241 -0.018996174 0.12994967 -0.0051377486 -0.072208114 0.04329852 -0.069840655 -0.109359235 0.0896797 0.032781433 0.023712294 -0.007322515 0.041624386 0.07905169 -0.04326669 0.033479307 0.04842801 -0.077463806 -0.028235102 -0.07274625 0.016929237 0.11407214 -0.081320226 0.070077844 -0.0073671495 -0.047985945 -0.05782204 0.015297803 0.084572665 -0.06164794 -0.06696019 -0.112009205 0.0110172285 0.08863034 0.025508154 -0.036819533 -0.03791858 -0.043064393 0.022581466 -0.083946295 -0.003350017 -0.003116366 -0.014200674 -0.0019616704 -0.02515919 0.0019038353 0.016780298 0.07485019 -0.031250168 0.057836056 -0.053477556 0.105175294 -0.015986446 -0.036929287 0.063852206 0.027411494 -0.016542131 -0.043676946 -0.07490343 0.023931142 -0.14768837 -0.02760721 0.066183984 0.046587206 0.026541458 -0.014630724 -0.011842009 0.011655082 -0.07101577 0.028838301 -0.03686602 0.11895966 -0.017816052 0.014977759 -0.07018572 -0.044276085 0.099391244 0.06463215 -0.106434256 -0.012397276 0.034791887 -0.012278782 -0.042855203 0.054787803 -0.041851588 0.013281457 0.05023494 0.038981084 -0.030431494 -0.072140664 0.030008165 0.005125953 -0.0018325412 0.08320564 0.15949365 -0.051491432 0.00488855 0.009533433 -0.10946074 -0.16425882 -0.0050621745 -0.06356359 -0.044303153 -0.003022695 0.03743334 0.016979098 0.01381891 0.043399543 0.08914435 -0.016147502 0.011663989 -0.024418298 0.006818875 -0.068624504 0.05434853 0.04446968 -0.021259142 0.01461079 0.096157715 -0.048427153 0.020257782 0.0032495204 -0.07015151 0.058994584 -0.028163793 0.03244748 -0.008612768 -0.01813206 -0.04688979 0.08375415 0.050608378 0.05583934 -0.050972763 -0.11893957 0.10886928 0.09674961 -0.04302326 -0.011956929 0.0031238424 0.012336848 0.01230623 -0.039001532 -0.0075903907 -0.05048193 0.018743467 -0.10216693 -0.024872065 0.011170107 -0.05417109 -0.032811373 0.028581643 0.09551529 -0.0063874456 -0.008101129 0.047948197 0.0010266722 -0.049232215 -0.09057341 0.01077769 0.06246461 0.09264377 -0.053893913 0.022894831 -0.034187436 -0.037146118 -0.07114365 -0.09426089 -0.03962702 -0.10555599 0.015916146 0.010283947 -0.02757678 0.04911333 0.011474829 -0.0032027767 0.014059683 -0.098811164 -0.02294359 0.012241007 0.048023682 -0.022907207 0.002363674 0.12654215 -0.0072458917 -0.08675218
944 0.034936428 0.050314914 -0.11740526 0.07228018 0.03142619 -0.00719478 0.13895682 0.017529106 0.022303479 -0.065856345 -0.044389624 0.04371618 0.060603037 0.060593516 0.07350432 0.023121554 -0.08259142 0.026115328 0.017216329 -0.022889756 -0.015200653 -0.024614558 -0.0088495035 -0.07862994 0.016989011 -0.026763577 0.07370198 -0.07181902 -0.016710281 0.1068673 0.08771015 -0.0625818 -0.0006946046 -0.013383311 0.11396937 0.021671033 -0.009949637 0.057090394 0.022488836 0.06517929 -0.0028027026 -0.011923585 0.052266784 -0.09273362 -0.10689892 0.030043963 0.0143444985 0.094082646 -0.08243106 0.02776352 0.012764355 -0.0036404934 0.042236693 -0.051810436 -0.08629767 0.12296532 0.027844049 -0.08814789 -0.008713722 0.00019408739 0.04535996 -0.02659637 0.040873975 -0.031966694 -0.020635325 -0.030713469 -0.018727535 -0.0063683707 -0.04691107 -0.0038103685 0.006318368 0.0055253934 0.009519314 -0.0038778253 -0.0043126214 -0.039354675 0.013492496 0.06987447 -0.008045945 -0.07885216 0.05212696 -0.032644846 -0.02147315 -0.057288744 -0.030027343 -0.0018783472 -0.009054361 0.02802143 -0.05051253 0.000372821 0.004596933 -0.04607463 -0.022955615 0.020240389 0.018696498 0.04850327 0.0042807525 -0.0072052563 -0.017519258 0.067895755 0.0100145005 0.024245402 -0.058505565 -0.017396796 0.016033037 -0.036296234 0.0047398023 -0.055682864 0.021048166 -0.023187907 0.0314853 -0.08684214 0.045359217 0.042308524 -0.0032606507 -0.020102825 0.014327835 -0.035577353 0.022166414 0.007214972 0.0072021275 -0.006213979 -0.032173157 -0.046857458 0.06283288 0.059799984 0.06235645 -0.0013149185 0.018153636 -0.032938246 0.0017643897 0.031088844 -0.047177017 -0.02774616 -0.016182613 0.0141453575 0.08353891 -0.062350113 -0.02323373 0.017182589 -0.018616997 0.02947421 -0.018023632 0.024648909 -0.054331124 -0.0977402 -0.12789735 -0.024533292 0.025770854 0.0009854591 -0.014608432 -0.059062228 -0.04739044 0.10889372 -0.007877193 -0.052361593 0.010197261 0.0192645 0.029990619 0.024123527 0.00042091683 0.042884212 0.0543774 0.004678669 0.06698909 0.09773753 -0.04425395 -0.0724435 0.06344888 0.035137814 -0.009430056 0.024984116 -0.043863785 0.020947775 -0.0049237637 -0.042351946 0.011184975 0.06396107 0.012353077 0.039014436 -0.04128482 -0.043682136 0.069804005 -0.08732912 0.02565688 -0.09231255 0.052825928 -0.033416506 0.014107846 -0.03768625 0.054740332 -0.053878255 -0.09490704 -0.084904775 0.091114804 0.0641927 0.014180773 0.0072302762 -0.061066568 -0.015819337 0.06816961 -0.008503096 -0.024258852 -0.012547193 -0.03677518 0.00892682 -0.017645793 -0.042224232 -0.021536715 0.1055983 -0.04708818 0.05925592 -0.0197738 -0.024546754 -0.06957267 -0.019421201 -0.016180106 -0.078740425 0.05277901 0.042985313 0.034903146 0.016658582 0.050796255 0.11514871 -0.020913383 0.0106119085 0.025973264 0.077723324 -0.06563707 -0.093449414 -0.08108443 0.015460204 0.028526796 -0.0014483165 2.0382227e-05 -0.022590276 0.06031582 -0.044615883 -0.052610464 0.052840665 0.06711435 -0.021760399 -0.037300564 -0.054197565 0.07882534 0.039722677 -0.017498981 0.11311045 0.07156038 0.05293012 0.028366528 0.017378123 0.014231591 -0.077429265 0.04235009 -0.027818695 -0.03364923 -0.0012307223 0.08161591 0.011015983 0.002636858 -0.027171705 -0.0021362954 0.008502169 -0.049716927 0.018843988 0.03799766 0.038028773 -0.012567913 0.025480676 0.009439843 0.08412326 -0.071492046 0.013773423 -0.010930275 0.029928703 -0.038588833 0.001505197 -0.028018674 -0.05488588 0.055851392 -0.03740736 -0.048755527 -0.0289972 0.031956546 0.06856752 -0.048762847 -0.034954302 0.025608912 -0.05465941 -0.032532893 0.08345456 0.0231709 -0.016351683 0.10130673 0.017662778 0.02542064 0.08828451 0.0198916 -0.022962084
1471 -0.029152922 -0.030389436 -0.03471232 0.049724087 0.028401827 -0.021319075 0.08039192 -0.027027441 -0.018241722 -0.024522705 0.018350983 -0.029113991 -0.03353016 0.037370495 0.11099784 0.013011498 -0.043534562 0.031241737 -0.023769869 -0.01899932 0.025315411 -0.017004058 -0.030915625 0.009920258 -0.003507768 0.0418555 0.040360294 0.0053719487 -0.01925007 0.07909918 0.027504629 0.11567586 0.026897423 0.048780628 0.024486033 0.06011249 -0.052380066 0.098993935 -0.00068521034 -0.020733206 -0.008865288 0.00044986513 0.03177141 0.054946538 -0.1111529 0.0779078 -0.026880236 0.03226738 -0.0069919303 0.055964675 -0.11403188 -0.0019721724 0.052450098 -0.0097281635 0.017939184 0.045655314 0.048150524 -0.059577093 -0.009989521 -0.02115116 -0.043132715 0.015149806 0.054877594 -0.043955676 -0.04387991 -0.005681238 -0.039298505 -0.027370181 -0.15351704 0.026605397 -0.0188138 -0.10440613 -0.010865074 -0.016714495 0.0143581275 0.0021533538 -0.03409003 0.04514204 0.0013575563 -0.07600483 -0.031871874 -0.032502744 -0.028646797 -0.062082574 -0.089188576 -0.00020610722 -0.027798563 0.03430825 -0.04671281 -0.01695973 -0.18934742 0.048093945 0.025798192 0.033931755 0.061202057 0.02066252 0.05144671 0.06970984 -0.05760163 0.047221478 0.003884288 -0.032037508 0.012290072 0.026694724 -0.02225734 0.016882852 -0.024901465 -0.01703158 -0.008498321 0.038654514 0.08082419 0.06551863 -0.011034916 -0.004891299 0.07639314 -0.019582711 0.08085865 0.08561364 -0.00083117746 -0.009155843 -0.018024417 0.018156655 0.03930833 0.013509932 -0.012730956 0.012700061 0.00041802786 -0.024682783 0.051070943 -0.00817667 0.01517689 -0.009106623 -0.05939047 -0.0033884915 -0.014259526 0.0070390822 0.09837564 -0.043672536 0.0012755934 0.0010172799 -0.06752688 -0.007877255 -0.0117176 0.054796763 -0.05875457 -0.07061753 -0.13920482 -0.008180051 0.06515828 -0.05007621 -0.032660194 -0.06718892 -0.049666863 0.06234679 -0.0061524212 0.03688216 -0.0032935 -0.029475834 -0.04933847 -0.05371894 -0.015388159 0.061580013 0.02400067 -0.024112253 -0.005040819 -0.018651977 0.05094566 -0.023341019 0.13396332 0.044771343 -0.01942749 -0.007085491 -0.053727828 0.03243605 0.03585539 -0.023649251 -0.016559053 0.10133965 0.06269021 -0.054643244 -0.024877403 -0.014630655 -0.03048819 -0.104818724 0.008323399 0.03650894 0.09316322 -0.05788925 0.11568312 -0.08377526 0.06692634 -0.020763867 0.03408076 -0.042156503 -0.02518744 -0.01440374 -0.0067901155 -0.00888978 -0.025574096 -0.04950594 -0.00080623024 0.027482191 -0.005616091 0.00092709623 -0.06472318 -0.033545233 -0.026644034 -0.081085004 0.06231141 0.13329768 -0.04618927 -0.030174641 0.04080598 -0.05359442 -0.01359439 0.055261906 -0.07586774 -0.059903707 0.07324648 0.044168964 -0.02221374 0.014809049 0.009086226 0.1152979 0.04308609 -0.024651539 0.0064518005 0.04477547 -0.050248943 0.002294613 -0.012136761 0.03506121 0.043869674 -0.04937656 -0.006063618 0.0067198095 0.018553337 -0.12785645 -0.010859718 0.09448941 -0.006634701 0.0041724197 0.006380288 -0.069615826 0.08856818 0.033627424 0.017686179 -0.041814245 -0.0425619 0.088735655 0.08038566 -0.0021982277 -0.011684057 -0.027490143 0.05315766 -0.086616874 0.0047261817 -0.008991317 0.0362708 -0.062439606 -0.03604464 0.0012961079 -0.022594322 0.024751743 -0.03838702 0.016368996 0.074578255 -0.0165457 -0.041655697 0.054874763 -0.05583146 -0.008155826 -0.09425804 -0.014417928 0.060029496 0.10228537 -0.023667471 0.0013390444 -0.026872579 -0.059375923 0.0753212 -0.06199973 -0.042993043 -0.04145596 0.06462177 -0.037957568 -0.03182155 -0.033971526 -0.011015143 -0.0063266335 0.016711336 0.013521614 -0.094129056 0.0022065304 -0.08691917 -0.021438856 0.0061310707 0.10541884 0.013753759 -0.042073257
900 0.033021897 0.018919451 0.033741124 0.07940391 0.036922302 0.059539318 0.07861394 -0.034983043 -0.019604674 -0.036854956 -0.08087403 0.030513622 0.07215654 0.02447693 0.012873472 0.03861074 0.031748395 -0.071721725 -0.07747581 -0.023066336 0.0046154703 -0.007684337 -0.04721208 0.014492071 -0.008686281 -0.0062044635 0.121880166 0.028958485 -0.028063746 0.11355128 -0.10547351 0.06939568 0.076682 0.04760346 0.018347597 0.07473483 0.024288433 0.09152734 -0.002169204 -0.13208072 -0.021226408 0.018876147 0.062100437 0.003451084 -0.14091663 0.022779815 0.055212565 0.066421755 0.03720179 0.03554859 -0.030519927 0.00087129034 -0.068345144 0.018646993 -0.016022408 0.024718769 0.032417577 -0.05610946 -0.09113729 0.02656391 0.06895432 -0.0052052964 0.03563592 -0.012970432 -0.057559777 -0.034022428 0.028451972 0.041392334 -0.09915214 -0.110706575 0.02907061 0.0149080055 -0.0406768 -0.10166582 0.0035709536 -0.10767433 -0.049128156 0.047337472 -0.02881904 -0.075147256 0.04055296 -0.050855704 0.07216629 -0.012532864 -0.011845398 -0.07370684 -0.02499649 0.01409524 -0.09240594 -0.009832068 -0.012425245 0.06960004 0.018372318 -0.038457382 0.046898067 0.04990704 0.042029146 -0.021961175 0.0653995 -0.19709209 -0.05965179 0.024225356 0.002424299 -0.026528254 0.016478596 -0.0064495574 -0.020470096 -0.06121081 -0.022787873 -0.15363964 0.0040762573 0.0034252547 0.08862038 0.0705842 0.047762815 -0.035962038 -0.15056686 0.07014061 -0.048423003 -0.06673522 0.015911687 0.040545367 -0.024341283 0.027458072 0.044255737 -0.017963408 0.079346634 0.08475723 0.09302317 -0.006169939 0.078884296 -0.010132492 0.0326531 -0.036646158 -0.015633771 -0.02575712 0.11725908 -0.057281785 0.05502492 0.07117665 -0.051854834 -0.106135465 0.051862568 0.033282936 -0.05686646 -0.030276306 -0.10741415 0.004855933 -0.09291218 0.10380935 -0.038903933 0.076890744 -0.009424504 -0.017969815 -0.13014352 0.054892894 0.028204573 0.05576984 0.040797744 0.041421827 -0.08729219 0.08188279 0.070785515 -0.046664566 -0.081405126 0.018007299 -0.114779316 -0.009890542 0.11360898 0.08591047 -0.091057286 0.06502762 -0.070021786 -0.011794865 0.04867174 0.051385194 -0.049783006 0.032827448 0.025178827 -0.10823813 -0.03384695 -0.064803034 0.03879005 -0.09280527 0.06339188 -0.027939232 0.07023537 -0.040425044 -0.0075386534 -0.09227712 -0.045116674 -0.055067394 -0.0019540412 -0.05061315 0.081523135 0.03046767 0.04567473 -0.083154514 0.050588127 0.021040803 0.0013433156 0.016766107 0.18102396 0.03653025 0.0004163718 -0.0020195076 -0.031473752 0.023613751 -0.02439637 0.09429609 -0.049931876 0.036301468 -0.027015496 -0.0071630487 -0.03372812 0.012498863 -0.049103756 -0.06409366 -0.021335984 0.027300749 0.05190044 0.08678889 -0.07660196 0.06598657 -0.0005402393 -0.0035534706 0.07918539 0.026282594 -0.06613194 -0.04175983 -0.0322538 0.05573051 0.013619829 0.06497251 0.014941702 -0.017092962 0.038831666 -0.054368045 0.013329756 0.042911466 0.039103 -0.018214341 -0.033568177 -0.07310558 0.074129 -0.092299625 -0.0014786056 -0.052175272 0.037050508 0.054155216 -0.00969269 0.017854733 -0.060892217 0.086909205 0.004914001 -0.047022745 -0.031014053 -0.0042173006 0.058614068 -0.0089195315 -0.05559742 -0.026483996 0.0026912214 -0.0026139931 -0.03839351 0.07192623 -0.056352455 -0.04731874 -0.00019169088 -0.017518781 -0.044066347 -0.053820945 -0.07252331 0.015763914 -0.05467795 0.010265975 -0.028623126 -0.008591689 -0.012088105 -0.032674395 0.081712425 -0.0042852797 -0.041497663 0.01795014 -0.021248195 -0.03995361 -0.019862188 0.0066693556 0.028286612 -0.022135463 -0.03350249 -0.07152273 -0.0821392 -0.08800229 0.086813666 0.025279071 0.00926969 0.1388526 0.08255793 -0.013128126
578 -0.061006032 0.04622224 0.0037495834 0.047165025 0.10189503 0.011905435 -0.00084141956 0.008894012 9.644897e-05 0.034745093 0.028849054 -0.0076711983 0.029570414 -0.09188937 0.10237969 0.027471628 -0.02688668 0.062292483 -0.029377783 0.024471248 0.08248728 0.09245827 -0.015977064 -0.022515224 0.013258333 0.090422526 0.009559072 -0.08719042 0.028902208 0.17607497 -0.0062126983 -0.0025161752 0.044873428 0.05200667 -0.016307263 -0.028508237 -0.016051337 0.06570538 0.0042315857 -0.020282526 0.052245744 0.05828355 -0.014651201 -0.011065949 -0.07020878 0.0188266 0.0026973994 0.12394669 0.06558732 0.032677684 -0.127277 0.022046968 -0.05916419 -0.008968789 0.07846686 0.026870303 0.05253366 -0.030928379 -0.016328484 -0.05251708 -0.04387479 0.06447958 0.15166609 -0.002609789 -0.03817637 0.08466748 0.0040854784 0.0759432 -0.028926529 -0.04699182 0.007085203 -0.05608125 -0.047497675 0.011020944 0.006343463 0.08921542 0.042642802 0.035429634 0.043774217 -0.051699247 -0.10391721 -0.08616726 -0.008850957 -0.07866744 -0.07735993 -0.13680318 0.035001326 0.0014581603 0.02301007 -0.02261763 0.019511443 -0.028311782 0.007634749 0.11139638 0.056629095 -0.011510138 0.07173132 0.038380157 0.053190425 -0.090347104 -0.029395832 -0.012892002 -0.08364011 0.015449533 0.06331598 0.028344762 0.032087043 0.013187205 -0.014872817 -0.028244624 0.03052747 0.01695045 0.058864392 0.010055354 -0.12273703 -0.022367 0.009620278 0.03869764 0.039817978 -0.06473059 -0.0031385394 0.038990013 -0.050968893 0.110874176 0.033060633 0.009166074 0.078169115 0.048845664 -0.009841573 -0.06253793 0.1350076 0.04968099 -0.028885404 -0.05048488 -0.02298396 -0.05241138 0.090934075 -0.035544418 0.059068177 -0.017152647 -0.03971415 -0.030793097 -0.038179774 0.05270133 -0.062098697 -0.10587424 -0.09052905 -0.05688759 -0.04351034 0.06128568 -0.05260434 0.038703676 -0.025978746 0.010727996 -0.011397064 -0.05794578 0.018923568 0.018751858 0.05499601 -0.053067256 0.009292726 0.093039386 0.04871809 -0.058195204 -0.02810362 -0.062899865 0.1122514 0.04440041 -0.04530193 -0.027966592 -0.043370128 0.06106836 0.0027563141 -0.03672606 -0.0023439499 0.00035000168 -0.06551924 0.09981238 0.085139334 -0.025387757 0.029575959 -0.022691816 0.0453233 -0.04967575 0.04773297 -0.011066258 0.12393773 -0.06160392 -0.0061302385 -0.102050036 -0.040274784 0.035372544 -0.011561623 -0.023126397 -0.0604729 -0.03904818 0.00436169 -0.04277051 0.045278125 -0.024719799 0.03998107 0.03915047 0.017654296 -0.031419247 -0.012803482 -0.036270604 0.010791633 -0.07414298 0.08045665 0.1770214 -0.055845555 0.052969545 -0.023174929 -0.096845455 -0.13014354 0.06224923 -0.07405557 -0.12591933 -0.000353348 0.030302256 -0.013847975 0.07485415 0.08014106 0.07503135 -0.057368156 -0.048908982 0.085039936 0.14140175 -0.06779818 0.06825687 0.064354084 0.018604564 0.024119804 -0.06066968 -0.025275396 -0.0075720577 -0.0103421295 -0.019656166 0.036081377 0.028304383 0.0034170933 -0.051008575 -0.059318263 -0.058562778 0.075423256 0.12126151 0.050529275 0.034738477 0.07883578 0.08271739 0.05069863 -0.025164077 0.005238986 -0.09013608 -0.056298573 0.023878774 0.005430585 -0.060358096 0.032215457 0.011968352 0.10543719 -0.013832406 0.042097725 -0.040219817 -0.036446463 0.09645885 0.05710275 0.10892792 0.08446896 0.04687987 0.012595527 -0.006735731 -0.12656602 0.0067668767 0.031333864 0.05398275 -0.066524796 -0.004168152 -0.030533284 -0.04847938 0.074243225 0.012481698 -0.010965421 -0.012308104 0.05068315 -0.0013310228 -8.230293e-06 -0.052658033 0.008186331 0.019190747 -0.02758602 -0.08318665 -0.06320308 0.030558614 -0.009638156 -0.013328248 0.025043419 0.13611503 0.04093858 -0.05176428
1636 -0.019918207 0.014398525 0.01782134 0.017320724 -0.01080554 0.010650058 0.02644179 0.023241604 0.023025941 -0.05340308 0.05526508 -0.0345112 0.01920785 -0.0078114155 0.06193567 0.034930658 0.044888787 -0.051546205 0.065371774 0.034316394 0.03305516 0.008979229 -0.01219295 0.024956701 -0.004723927 -0.12572956 -0.02837305 -0.0059816586 -0.061994486 0.13583876 -0.006563792 0.086185 0.022705952 0.07038106 -0.02278823 -0.046721138 -0.011200026 -0.023192212 -0.048453853 -0.00062384177 0.06912579 -0.039157458 0.038726944 -0.07754124 -0.12519085 -0.048312902 0.025753474 0.027041072 -0.08256748 0.020533085 -0.0013618995 0.017676516 0.02295931 -0.015948184 -0.026162509 0.006435634 -0.02200785 -0.021399923 -0.011889346 -0.027263662 -0.009907795 0.08882791 -0.07050085 0.04932641 -0.09518237 0.010223379 0.030056525 -0.054104432 0.06866499 -0.032298744 -0.009691513 -0.05197106 0.016221613 0.038320284 -0.032090303 -0.023719277 0.0040500294 0.07199966 0.016354682 0.008775553 0.034050666 0.023243884 -0.080549546 -0.041455377 -0.025183514 -0.060965292 0.0020707985 0.06213204 0.021770388 0.04503659 0.040999196 -0.05124039 -0.046357118 0.07654331 0.008707165 -0.034257635 0.042911842 -0.013179859 -0.040132932 -0.035876323 -0.04172034 0.01965871 0.020147255 -0.014597841 0.054031283 0.07075641 -0.014114967 0.02282934 0.03354658 -0.022163995 0.02423335 0.015139777 -0.007781258 0.004507391 -0.06661286 -0.024738934 -0.0068160407 -0.012653943 0.018252604 0.0008286629 -0.027101971 -0.011261392 -0.016228786 0.0062065125 -0.0002074521 0.047450926 -0.016180798 0.07629586 -0.02497356 -0.0047792722 0.033981435 -0.04367717 -0.041461896 -0.03261715 0.03251316 -0.014021887 0.11030367 -0.025054915 0.053549804 0.024205439 -0.034669396 0.031496745 0.012378668 0.028766196 0.06063633 -0.024767034 -0.11356214 0.016961936 0.07529463 0.10331064 -0.020069022 -0.09168815 0.002412796 -0.030891854 -0.051788017 -0.003492483 -0.0068644304 -0.00096853584 0.0024340414 0.06849386 -0.0020512724 0.0016366029 -0.00018691085 0.021491557 0.030902278 0.013138285 -0.02339315 -0.074555986 0.055706743 0.023969313 0.0056053456 0.109664455 0.011158261 0.02609141 -0.014944069 0.0032485444 -0.018215671 0.048460275 0.05281831 -0.007938065 0.0451676 -0.0077557564 -0.043283395 -0.033570178 -0.006522633 -0.057345808 0.031554013 0.077410474 -0.002450386 -0.04522493 -0.060553495 0.0115884915 -0.023081215 -0.10480942 -0.15356758 -0.049102932 -0.116134055 -0.0009326488 -0.094538555 0.008403342 -0.018484553 0.018085862 -0.040636025 0.02124112 -0.014385636 0.026279306 0.03265807 -0.021080602 -0.048875973 0.023960747 -0.05908108 0.04450157 -0.014642339 -0.0017691553 -0.109380834 0.031789992 -0.0015652766 -0.083107665 -0.06479928 0.049812287 -0.0033731144 -0.006337625 0.02637869 0.079574004 -0.009440601 -0.023604935 -7.7215955e-05 0.0007532835 -0.008707643 -0.0060171625 0.031076076 -0.036895707 0.035299312 0.041728903 0.023216011 0.009567125 -0.0041919798 0.023578605 -0.03615468 -0.046060752 0.07599167 0.010245489 0.05648034 -0.03599053 0.08827813 0.01470129 -0.0016429999 0.013974617 -0.0011329595 0.046696413 0.020283846 0.06244532 0.009244621 -0.0024781153 -0.011722761 0.034479056 -0.013360624 0.016409202 -0.02956975 -0.06900738 -0.018030532 -0.039859973 -0.049410094 -0.0038345656 -0.055859372 0.018100746 0.13799512 0.028687727 0.028997023 -0.019948961 0.017755235 0.05160031 -0.1227792 0.0036975192 0.080965035 -0.010439226 -0.01845374 -0.014609857 -0.035726804 -0.051236074 0.048497066 -0.011980993 -0.02816422 -0.017439663 0.026611304 0.036530018 -0.05247507 0.0024029985 -0.0349036 -0.06129244 -0.07389716 -0.029918991 -0.049445305 0.019935561 -0.07076407 -0.0363467 0.02915594 0.11165053 -0.011061493 0.014571125
2104 -0.04948037 0.017556494 -0.04660847 0.04298697 0.0063772863 0.0649573 0.129928 -0.008877895 0.02563123 0.112535544 0.042347603 -0.024097864 -0.0110523105 -0.05472308 0.06920882 0.05219617 -0.0968448 -0.025046434 0.05124907 0.009385252 0.086555764 0.027235474 -0.005055542 0.009874425 0.020554736 0.03203317 0.035510466 -0.0018848069 -0.011536222 0.13375726 0.035126634 -0.046535112 0.049669255 0.0337115 0.16262987 -0.05879543 0.018545054 0.0320815 -0.044944074 0.012003031 -0.001682769 0.0823742 0.079239815 -0.040197708 -0.10430596 -0.0026022843 -0.108006 0.03914635 -0.07965622 -0.020975742 -0.04138509 -0.07363394 0.026633203 -0.06461498 0.028988715 -0.013989728 -0.013316017 -0.023557125 -0.010763086 -0.012076628 0.08579014 0.049368624 0.04606717 0.00833952 -0.08599455 0.06781632 0.014941544 0.054486685 -0.030455016 0.011232174 0.0002572462 0.018121842 -0.05869209 0.02660381 0.024177216 0.012223944 -0.015847588 0.020061618 0.0047974708 -0.045919694 0.022948788 0.07697925 -0.032855324 -0.06899524 0.0006169169 -0.06910324 -0.015956968 0.016064374 -0.020850722 -0.0046987254 -0.030757666 -0.05435038 -0.008177467 0.07056591 0.02480766 0.020170111 0.031930257 0.0745408 -0.025553783 0.025910567 0.013460814 0.052654706 -0.06452439 0.009811988 0.033715945 0.006952883 -0.039952625 -0.05109594 -0.0006112009 -0.063273065 0.044937573 -0.03918819 0.012656968 0.023317426 0.020306543 -0.015427643 -0.08929368 0.046368703 -0.04278698 0.027875971 -0.038913257 0.06489888 -0.048930667 -0.034525804 -0.06826901 0.021246064 0.020464707 0.0014269624 -0.03277376 -0.04349117 0.0034978592 -0.019741949 -0.01256025 -0.031633012 0.010225945 -0.07771933 0.08679187 -0.010322304 -0.022050183 -0.081761755 -0.047723874 0.018610079 -0.012031127 -0.0069974773 -0.03888581 -0.06626869 -0.101239875 -0.020082988 0.07328072 -0.019909473 -0.02433011 -0.082569025 -0.014675871 0.041385554 -0.05833646 0.049961228 -0.0074832067 -0.034561608 -0.031620983 -0.0568192 -0.0036471747 0.108671315 0.052789606 -0.06015057 0.05913157 -0.09969933 -0.015473128 -0.027814839 -0.0034920964 0.0052332897 -0.07292296 0.042620137 -0.024686106 0.05420445 -0.07412414 0.019233389 -0.0093691535 -0.017779678 -0.02572576 -0.020571552 -0.032853484 -0.019441452 -0.003056475 -0.06066458 0.03442955 -0.011613952 0.073685676 0.006240083 -0.03482035 -0.041648325 0.004236359 -0.0062053353 -0.06397057 -0.03549081 0.0066972137 -0.0015547373 -0.04678102 -0.024238009 -0.06764695 -0.0018799584 0.015956689 0.004201071 -0.12346395 -0.014504765 -0.04677952 -0.0073711416 0.019505886 -0.07340885 0.030187575 0.08948596 -0.058619514 0.088713266 0.005354937 -0.10191701 -0.076366104 0.055834197 -0.044780545 -0.12519614 0.031217147 0.06773538 -0.06242913 0.041276626 0.10225028 0.06164076 0.025306564 0.011328722 -0.030170806 0.011050053 -0.077614255 -0.027137294 0.012204997 0.034059934 0.013182355 -0.048614517 -0.012326263 0.020580597 0.04964985 0.0014506038 -0.037615422 0.0049734646 0.026566772 -0.013570626 -0.029180702 -0.04646776 0.08850768 -0.04262428 0.034844227 -0.0044992873 -0.005487361 0.060155027 0.046512567 0.03739743 0.009137918 -0.10974699 0.030477645 -0.018539924 -0.034250762 0.033586733 -0.013687465 -0.02055219 0.012805583 -0.02335856 -0.0009716684 -0.051173832 -0.066488035 -0.05132746 0.0413448 0.037407346 0.049757425 -0.014442118 0.05876193 -0.01940329 -0.06400411 0.014957537 0.04892613 0.04034914 -0.041356944 0.004082437 -0.03581415 -0.048213057 0.047142338 -0.053237084 -0.029112339 -0.088086545 9.993231e-05 0.021997802 -0.021519901 -0.047122385 -0.060210973 -0.023649668 -0.051453244 0.02400181 -0.117620714 0.012682828 -0.078009084 0.002560616 -0.0065241107 0.13246942 0.03702042 -0.032676652
847 -0.006711133 0.015847757 0.0012964297 0.07965229 0.016303994 -0.0417771 0.106588915 0.06621679 -0.00693432 0.018246733 -0.030203324 -0.02879569 -0.017241135 0.020623315 0.07430202 0.029534861 -0.014715001 0.01926342 0.027378947 -0.029061377 0.07898012 0.028771974 -0.004483141 0.04500389 -0.001203617 -0.026194915 0.02017097 -0.044990323 -0.007007928 0.09915276 0.013992808 0.054704003 0.01864545 0.04987952 0.044528447 -0.020448443 -0.0044680974 0.0677466 0.019561585 -0.06253855 -0.023626527 0.002994962 0.008406144 -0.016405495 -0.122252434 0.03962905 0.007957107 0.041037306 -0.052065697 0.015666153 -0.052663635 -0.054401048 0.025972348 -0.016854972 0.01322592 0.03967122 0.030246649 -0.07047318 -0.049557544 -0.087850295 -0.0549124 0.049298793 0.051185485 -0.045134958 -0.034735937 -0.024897609 -0.0079853255 -0.036008697 -0.0650958 -0.014955836 0.02523372 -0.029288596 -0.019879026 -0.013621765 -0.02103116 0.038014356 0.009087434 -0.001997803 -0.014137909 -0.06484088 -0.0036355122 0.012833468 -0.00689136 -0.065055124 -0.04871554 -0.03402989 -0.03756029 0.036148354 -0.00255884 0.0024821432 -0.121950716 -0.024247099 -0.006876697 0.022035819 0.04139661 0.033706367 0.031380072 0.008761972 -0.027297517 -0.010954419 0.010078594 -0.03288039 -0.010409726 0.00031770766 -0.023532957 0.013222496 -0.011047766 -0.02196478 -0.016380794 0.011668278 0.055071644 -0.003899937 -0.021583967 0.031921342 -0.006112419 -0.00090093416 0.050303098 0.059062492 -0.021163154 0.007671883 -0.03415814 0.009641988 -0.04602402 0.01157842 -0.019027822 0.043796487 -0.033652186 0.024356633 -0.03550197 0.007643041 0.056181222 0.016278446 -0.041339274 -0.007754202 -0.00317842 -0.041600037 0.11368918 -0.0011834645 0.07647328 -0.054368176 -0.033783343 -0.027646188 -0.05126927 -0.027031308 -0.06712901 -0.03009986 -0.13290188 0.06727214 0.067566216 -0.04370925 -0.019842809 -0.047877617 0.00087299943 0.072808474 0.011357299 0.0063930317 0.011189791 0.02143237 0.0044768075 -0.026269212 -0.0371819 0.0059754793 0.05196044 -0.01679208 -0.030719507 -0.02816026 0.012450187 -0.030102905 0.057777803 0.058193367 -0.025611263 -0.018456232 -0.053223845 0.017999813 0.0066075115 -0.021917291 -0.0025940638 0.09833646 0.064777285 -0.03994435 0.016049452 -0.02570964 -0.040507574 -0.0690525 0.053944863 0.025227217 0.05264835 -0.017167745 0.02789756 -0.0068130475 0.01133824 -0.040953297 -0.005612354 -0.01635956 -0.058059767 0.012180075 -0.04087348 -0.015106754 -0.033353552 -0.031437054 0.015081067 0.020817436 -0.06488177 0.0053458475 -0.030475091 -0.0073248297 -0.005852863 -0.07616325 0.043765426 0.108955905 -0.021677312 0.0017595676 0.0002098928 -0.050925814 0.020308582 0.031130873 -0.023691226 -0.06288144 0.01622076 0.028603625 -0.04499645 0.030452795 -0.00031538922 0.09567796 0.040657256 -0.009699031 0.0037922848 0.016409706 -0.05515957 -0.02101862 0.007859616 -0.0475825 0.03643778 -0.016928297 0.006425263 -0.002494188 0.033509552 -0.06722187 -0.014261245 0.047959488 0.011200173 -0.004722515 -0.042579588 -0.070971906 0.092059836 0.022286532 -0.011225904 -0.051362168 -0.012166447 0.05874475 0.048829466 -0.0031499404 -0.024175663 -0.061105542 0.09416728 -0.06378877 -0.040938493 -0.017703336 0.04732385 -0.008448252 0.0065449206 -0.039046347 -0.027215313 -0.010595057 -0.016317377 0.02329858 0.09127773 -0.011540353 -0.005988472 0.03187614 -0.0004442446 0.026349999 -0.07075758 -0.009647962 0.018104307 0.031815007 -0.037063964 0.015227323 -0.008053182 -0.04043758 0.09452003 -0.04851094 -0.049091116 -0.012680495 0.033037513 0.011926776 -0.012538914 -0.04121019 -0.0057933303 0.010417658 0.0052548386 0.007919133 -0.054002546 0.006047475 -0.07430601 -0.03547769 0.0070797405 0.11529001 0.07140027 -0.013425002
700 0.019311294 -0.033899285 0.047320873 0.055896025 0.031741504 0.018937634 0.017300414 0.059609864 -0.0203162 0.030320758 0.009040179 -0.028615698 -0.077316076 -0.032235272 0.072040305 0.048368122 -0.122651204 0.076831445 -0.030949328 -0.0012598818 -0.009230386 -0.06308227 -0.034379847 0.03775368 -0.0031844727 -0.11945439 0.00086420326 -0.035230756 -0.073830135 0.20480119 0.01738943 0.035603013 -0.0041458593 -0.008652652 -0.08525585 0.0062938067 0.016949616 0.020631326 -0.010368604 -0.11912298 -0.041850902 -0.0076108244 -0.0150561 0.07820712 -0.04472776 0.02873575 0.028781291 0.0047772513 0.13326493 0.03652442 -0.05398529 -0.06081563 -0.02474819 -0.061662823 0.044206258 -0.02393641 0.025714634 -0.040208578 -0.06383733 -0.022243304 0.041818418 0.001994056 0.111708835 -0.000698099 -0.011759532 -0.045085598 -0.058285106 -0.05685765 -0.013178532 -0.1108445 0.012798939 -0.011977811 -0.033451337 0.0882054 0.0033913571 -0.048587717 -0.029763205 0.14908409 -0.0095761055 -0.050941866 -0.0029931648 0.05672098 0.087571494 0.00028669008 0.004557418 -0.17958494 -0.010603547 0.023856288 -0.07278616 0.012202819 -0.033946626 -0.04222258 -0.0044281124 0.04798038 0.036406133 0.014909714 0.0061883065 0.046164367 -0.014649002 0.016568996 0.074494354 -0.06421557 0.032619156 -0.03412708 0.01830514 -0.009216184 -0.09803191 0.067613706 -0.11419603 -0.0058453674 -0.051437363 0.02419722 0.09977058 0.026701966 -0.028231539 -0.10258216 0.0037725938 0.068989016 -0.005758505 -0.025652405 0.016666327 -0.0136598 -0.09251719 0.1878057 0.052048385 0.03550704 0.050286174 0.059091836 0.0046075094 0.00021812615 0.06241439 -0.09236923 -0.0051323967 -0.023036653 -0.007590865 0.04382863 0.07289271 0.06613793 -0.027761418 -0.09161793 -0.02842698 -0.013835513 0.076750234 0.06716643 -0.030101998 -0.060835786 -0.11273416 -0.02745094 -0.003167837 0.13462955 -0.021412937 -0.0128321005 0.016677717 -0.06362807 0.010026932 -0.056307282 0.039321568 -0.010222644 0.02250301 0.15217033 -0.014332606 -0.076695874 0.061543163 0.059368387 -0.013289748 0.06689573 -0.024801226 -0.03697841 -0.030532042 0.03400595 -0.08692451 0.024388837 -0.09167181 -0.13469937 0.08883128 -0.07764522 0.062080927 -0.101837315 0.019936305 -0.013427279 -0.025271686 -0.034255248 0.0039235414 -0.041708637 0.0035438682 -0.017226407 0.051201142 0.018698754 -0.0076698423 0.019023597 -0.09738102 0.017329209 -0.06554412 -0.11385154 -0.14155082 -0.0923988 -0.0128056845 0.021327991 -0.035060927 -0.014782562 -0.020394076 0.02851997 0.10927208 0.040288713 0.010688429 0.008662039 0.003595095 -0.048274342 0.023226842 0.0039765784 -0.043660183 -0.0013445823 -0.019941792 -0.032156095 -0.03354396 0.010830718 -0.030574517 -0.11578412 -0.12247618 -0.00927393 -0.0100298375 -0.059754305 -0.0007351181 0.028802771 0.0034904236 -0.060428124 0.030922439 0.120623626 -0.057560325 0.01731396 -0.09310475 0.03594621 0.021292707 0.12578818 -0.069012836 -0.009601286 -0.02838903 0.0055833603 0.028494976 -0.046640664 0.09140916 -0.011676247 -0.040747724 -0.02805979 0.045880664 -0.016921729 -0.054788094 -0.058002245 -0.05870374 0.03658229 -0.03692722 0.05425169 0.019448308 0.06543361 0.055485394 0.020434443 0.050312772 0.04749493 -0.01737635 0.03527838 0.014758334 -0.02801832 0.014436064 -0.102053575 -0.03658296 0.032160256 -0.106077105 -0.037795853 0.00028707157 -0.011905554 -0.028794771 0.07741363 -0.036339156 0.014538644 -0.020318149 -0.0069609233 -0.038981687 -0.0033252514 8.8592795e-05 -0.026471937 -0.013471313 -0.038622867 -0.03586412 -0.03859888 -0.069972 -0.08971329 0.016907822 0.04260416 0.06471065 -0.0478291 -0.03635289 -0.14363311 -0.0856648 -0.014959361 -0.019939141 0.06328365 0.12215153 0.0877995 0.010115624 -0.06938314
1906 0.015146645 0.027974356 -0.0039814515 0.06387422 0.023846373 0.06793043 0.06132348 0.02749099 -0.013634897 0.03884729 0.021217622 0.008888314 0.0065751895 0.013478222 0.046391316 0.06051994 0.005679588 0.06312806 0.0794552 -0.006103604 -0.058133245 0.07831846 -0.06487641 -0.037038665 0.021327052 -0.0573003 0.04577845 -0.106651306 0.07215214 0.14605923 0.029628877 0.13782696 0.10013924 0.03291723 -0.020470418 0.0153518915 -0.020546045 0.034513865 -0.12055786 -0.09776965 -0.028083365 0.035859726 0.06479858 -0.01061684 -0.117026135 0.018730504 -0.008666182 0.002802867 0.030575536 -0.0067431135 -0.026372116 0.014170773 -0.002085898 -0.024824036 0.004699584 0.018667845 0.089503 -0.07350236 -0.058104493 0.12421756 -0.110505134 0.014809901 -0.07621293 0.011699534 -0.008062916 0.020434853 -0.013244735 -0.024395224 -0.020125877 0.08132161 0.027102321 0.0506465 0.036984604 0.06758794 -0.016571892 0.0087851435 -0.03317347 0.04277669 -0.012071768 -0.035627052 0.032070935 -0.009117588 0.06252377 -0.051790845 -0.0008974011 -0.05126612 -0.0067472467 0.0061621796 0.01584351 -0.0005911109 -0.03503473 0.0024998547 0.001485608 0.041677587 0.031802613 0.020005137 0.023128502 0.06668955 0.036010936 -0.036437817 0.016946085 -0.05466181 -0.025267303 -0.0068378486 0.0073808334 -0.09037379 -0.03947963 0.005977976 -0.07394296 -0.029194335 0.0639346 -0.0012513176 -0.015136394 0.01691446 0.017457597 0.021825511 -0.04379674 0.12267007 -0.043781016 -0.025572192 0.06759385 -0.01108915 0.023146864 0.041579083 -0.017075479 0.035895143 0.10580992 0.09636726 0.00864836 -0.015150095 0.087873414 -0.049433857 0.013227697 -0.02105215 0.03230347 -0.043128505 0.1093976 0.008686656 -0.010018073 -0.079103805 -0.044478867 0.012767083 -0.021198567 0.08199136 -0.009197924 -0.05184044 -0.11888778 -0.00649729 0.018316133 0.13678724 -0.030259114 0.075838834 -0.0006281305 0.03434267 -0.036741294 -0.025185345 0.0053368816 -0.013595018 -0.05629187 0.011077823 -0.03994817 0.043920007 0.052123576 -0.008441909 0.03343464 -0.05433004 -0.08748233 -0.077893324 0.049955107 0.011844426 -0.08513643 -0.0048020417 0.05487659 -0.038196035 -0.061422557 -0.05304122 0.04665395 0.049761243 0.10524071 0.038472615 -0.0694713 -0.0378258 0.05754876 -0.072279215 0.03068072 0.05192902 0.04383435 0.0035292688 0.052791633 -0.043304116 -0.070060626 -0.038673595 -0.089321725 -0.07307506 -0.044610824 -0.025855482 -0.0023663254 -0.014027271 -0.053751882 -0.013241954 0.03790781 0.013974455 0.10383019 -0.003237519 -0.04394035 0.10052642 0.00011947937 -0.09065047 0.14722073 0.0409146 -0.043074034 -0.026199829 0.010656875 0.050573193 -0.09896073 0.005618387 -0.056080356 -0.10077396 -0.05208213 0.057434134 -0.024965981 0.051625554 -0.0018832218 0.054826774 -0.10736507 -0.05584504 0.09749399 0.09582919 -0.039910775 -0.012252821 -0.05680389 0.03843703 0.024619125 0.03413625 -0.013826534 -0.029466392 -0.0347299 0.15167925 -0.00407142 0.06383762 -0.03132058 0.005897317 -0.012735873 -0.0369014 0.067830116 -0.07467527 0.037409328 0.049783543 -0.055482805 0.040039115 0.07853247 0.037095286 0.0016930052 0.02913001 0.05194267 0.0055540754 -0.027823072 0.04189067 0.07008864 0.04532675 -0.022023099 -0.026620746 0.059232894 0.07853931 -0.030481167 0.019141136 -0.03966161 -0.018679004 0.023008704 -0.0054623024 0.012651296 -0.022761766 -0.09119539 0.0022122331 -0.010492919 0.01539105 -0.059690543 -0.0006342046 -0.025822725 -0.032952152 0.060490485 -0.012734069 -0.033697594 0.0074279453 -0.04679384 -0.05930203 0.012873313 -0.03980233 0.09288916 0.02796792 -0.03158813 -0.0231614 -0.08737631 0.0011418499 0.021803742 -0.013021462 0.0003434613 0.11832381 0.0046218643 0.043269634
1640 -0.023398902 -0.04682545 0.031787727 0.09687907 0.06809287 0.057560977 0.004534265 -0.007666512 -0.059882596 0.030993268 0.014807158 -0.021504793 0.06968047 0.040074896 -0.03307882 0.05783525 -0.026548622 -0.033565383 -0.034113653 -0.03597253 -0.021197278 0.09577264 -0.06417691 0.07220474 0.005946841 -0.03256702 0.07401073 -0.08112101 0.02152583 0.119520254 0.014967382 0.019546462 0.007972899 0.052996937 -0.06386569 0.02234763 0.016253417 0.02821871 -0.021468908 -0.05457144 -0.011679046 0.051446278 -0.0039215074 0.14268069 -0.08502141 -0.008987965 0.013614399 0.029996457 0.016419735 0.09639473 -0.03353858 -0.008352822 -0.059873264 -0.027823014 0.04644367 0.029014982 0.06245713 -0.03854906 -0.09059706 -0.026429728 0.013082173 -0.03064989 -0.005835999 -0.028328514 -0.0945871 0.006292375 -0.02586804 0.038628828 -0.009540648 -0.104422316 0.01018073 0.03315864 0.020234445 -0.048070505 -0.0021228008 0.046691056 0.026652144 0.07195083 -0.0022473745 -0.079422705 0.005509177 -0.06472002 -0.003989037 -0.027746702 0.0030203564 -0.0037444215 -0.01625787 0.029240318 -0.10117687 0.008313393 -0.05711296 0.020393668 0.051923484 0.023934701 0.02668788 0.028829511 0.022550512 0.06316118 0.033502243 0.03144245 -0.0052651744 0.013380027 -0.007327992 0.0024356684 0.06691339 0.05503147 -0.0016788477 -0.004770565 -0.07931429 0.013511376 -0.018470267 -0.05743897 0.03622993 0.016314194 0.033444017 -0.017630003 -0.056942876 0.035612214 -0.038954355 0.018126024 0.006230369 0.053919394 -0.09479098 0.032786172 -0.025953287 0.06020792 0.0092738895 0.06293927 0.0902531 -0.050944306 0.05715962 0.042861167 -0.02833366 -0.00940678 0.023566294 0.0010264046 0.053517878 0.019706467 0.031043453 -0.03772172 -0.05627846 -0.059314728 0.008796594 -0.012433784 -0.07644071 -0.04565582 -0.11748232 -0.0034628008 -0.008526327 0.028082334 -0.025786944 0.060100026 0.046326585 0.011417765 -0.063020885 -0.025833303 0.039230887 -0.024791278 0.0031242557 0.018019598 -0.07030083 -0.04376528 0.046362635 -0.012145482 -0.033512227 -0.028144201 -0.0148638375 -0.02191866 0.019563086 -0.043995164 -0.043102194 0.028073177 -0.0354961 -0.07348519 0.023605049 0.009331059 -0.008957017 -0.034649726 0.011437792 -0.059751235 -0.08071499 -0.037090845 0.08215071 -0.069924474 0.019000605 -0.038360894 0.06559518 -0.097221926 -0.030595109 -0.018737296 -0.08985942 -0.021404494 -0.056257147 -0.07995367 -0.049365222 -0.020184617 0.006146744 -0.015145279 -0.05959406 -0.0033878079 0.023700338 0.044183154 0.09613434 0.024731386 -0.0007058792 0.016143113 0.01356172 -0.075473756 0.07309393 0.044321172 -0.029263632 0.0013276078 0.020859733 -0.09196339 -0.050048493 -0.011141559 -0.0012419401 -0.10142611 0.0046070255 0.0061100437 0.05998392 -0.0077126957 -0.037981033 0.08069758 -0.06474295 -0.0048263017 0.054961264 0.0032805763 -0.07378804 0.026008388 -0.023237795 0.04330734 0.013571593 0.0066198204 -0.01874021 -0.014539829 0.016298123 0.02499455 -0.0006278822 0.0071096066 -0.03627345 0.009340206 -0.008025594 -0.065365426 0.110948876 0.07977939 -0.040563002 -0.051773537 -0.01708916 0.08836412 0.03340519 0.003801064 -0.042870134 0.03432475 -0.021642415 -0.020659488 -0.015509566 -0.01624744 0.07400991 0.012086942 0.01260369 -0.016812945 0.02934847 -0.08103633 -0.013027269 0.020142283 -0.06749195 0.021666912 -0.012215707 -0.0069968267 -0.004078772 0.010829765 -0.09917157 -0.037161693 0.0027531453 -0.056512505 -0.029815754 -0.01400252 0.004217921 -0.08129498 0.094678365 -0.034344453 -0.06235445 0.04298566 -0.033521045 -0.0066258945 -0.010525945 -0.019887296 0.019715605 -0.0019111484 -0.050120905 -0.063919604 -0.05859568 -0.047900483 0.0312192 -0.0054507665 -0.011991514 0.089328825 -0.0042855814 -0.03700169
355 -0.038777243 -0.0004225802 -0.041957512 0.03859004 0.04047484 -0.0031553744 0.07152154 -0.02121063 -0.013303248 -0.043214064 0.075650066 -0.0043398566 0.030619675 0.06078612 0.09905006 -0.0036575617 -0.04432015 0.037920024 -0.029768107 0.008799946 0.006396873 -0.025603238 -0.07296864 -0.003938402 -0.009299487 0.05355932 0.07788544 0.043625608 -0.020388123 0.09522185 0.021625787 0.088690236 0.037673995 -0.032658294 0.08625456 0.10960306 -0.09335137 0.12660599 -0.025933024 -0.036536332 -0.031049985 -0.024393957 0.023606079 0.08823098 -0.09504018 0.05211053 -0.09045562 0.054132205 0.060176723 0.12547126 -0.0765178 0.018086057 0.046846665 0.013442705 0.033225153 0.049787298 0.030726004 -0.06887029 -0.033282172 -0.0013749669 -0.026179291 -0.056716293 0.0750587 -0.05039544 -0.031295486 -0.0012893021 -0.021653965 -0.052338276 -0.19510108 0.02035402 -0.02234263 -0.10512414 -0.06287046 0.019226862 0.022462882 -0.05704607 -0.072549485 0.048902195 -0.016279867 -0.062577076 -0.04178251 -0.0012967804 -0.037017122 -0.030512718 -0.053363077 0.0018179308 -0.00695998 0.023509812 -0.05009846 -0.02125377 -0.18299612 0.03606936 0.05899925 0.054595575 0.07725013 0.05460409 0.043503184 0.08318707 -0.07381125 0.06103961 0.020602113 -0.019898213 0.011662611 0.015362512 -0.05624714 0.010701997 0.047358125 -0.039939143 -0.011425077 0.0064700544 0.080782 0.07650397 -0.027564678 0.015557836 0.12934534 0.0012285354 0.06032408 0.055022568 0.04054557 -0.011246056 0.052892026 0.009940262 0.06081227 -0.027536036 0.014279842 -0.025989579 0.057158206 -0.05521547 0.06992355 0.018821673 0.008551133 -0.0053795497 -0.043165892 -0.025377369 -0.02927868 0.005910225 0.09370658 -0.029519707 -0.019973231 0.065038316 -0.07720577 -0.030644253 0.021744562 0.06834795 -0.05747384 -0.1038366 -0.14843075 -0.010667376 0.037256457 -0.043566655 -0.03853368 -0.07881229 -0.112255454 0.041014604 -0.075624295 0.05567621 -0.0012861366 -0.022925632 -0.0875785 -0.069502115 0.016572248 0.10188852 0.041486047 -0.0131867565 -0.008068542 -0.046372034 0.036394306 -0.03627423 0.15186729 0.007962453 -0.042981848 -0.046080153 -0.041907255 0.07747506 0.04968376 -0.005949624 -0.04893457 0.071517296 0.055541866 -0.011488158 -0.04560899 -0.016997315 7.8439436e-05 -0.1557468 -0.009649827 0.047683053 0.070542835 0.01983685 0.07053843 -0.14530309 0.045737874 0.015332718 0.008055023 -0.055831518 -0.0679217 0.008210977 0.007342489 0.026752478 -0.04299361 -0.08565094 -0.0048033153 0.013559457 -0.008813879 -0.025878018 -0.05961138 -0.005494736 -0.05570243 -0.0945077 0.051701892 0.14047402 0.0018222964 -0.059375647 0.026996285 -0.07209123 -0.030938184 0.07430114 -0.08427998 -0.10441648 0.087886654 0.099302985 -0.05028253 0.015219571 -0.020965705 0.09401678 -0.0017627982 0.0011494978 0.06618579 0.05975253 -0.03110237 -0.0028429104 -0.047755487 0.067544356 0.010268837 -0.06255387 -0.0100080585 -0.015345938 0.022595417 -0.083173595 -0.021540962 0.11474697 0.002773278 0.017830554 0.016210865 -0.06938076 0.083229475 0.021160109 0.022810547 -0.11741774 -0.07705953 0.04141574 0.0671732 0.026915884 -0.0057363533 -0.016403308 0.03783285 -0.06941511 0.004769542 0.030907927 0.030874003 -0.07307114 0.0017497904 0.008558955 -0.021614397 0.02955934 -0.06386737 0.027502546 0.032171637 -0.085955754 -0.06530074 0.04037842 -0.090956315 -0.042296343 -0.0745793 0.006817676 0.050403103 0.12016859 -0.031202056 -0.006816323 -0.050574757 -0.017782936 0.04366648 -0.03724547 -0.05723682 -0.07415221 0.03048181 -0.061129533 -0.045355678 -0.037010357 -0.031960562 -0.007906175 -0.008316959 0.007986107 -0.12716804 -0.049104773 -0.10040902 -0.001028007 -0.0019354919 0.08984187 -0.02006761 -0.05283424
594 -0.029065529 0.05536823 -0.05442977 0.093661666 -0.0028972253 0.029576618 0.08265816 0.022043832 0.017705308 0.07150302 -0.018271847 0.1289264 0.0067421705 0.030569533 0.046355516 0.0068427315 -0.06997919 -0.014914006 0.019182902 0.015343066 0.028686363 0.011281483 0.09859542 0.073621675 -0.0544779 -0.024025692 0.082942024 0.004664087 0.030592863 0.09985541 -0.05660151 0.017070692 -0.053919073 -0.001170547 0.048463635 -0.038347635 0.016166274 0.0737398 0.010586078 -0.096190244 -0.07868527 -0.05682978 0.013065493 0.044111356 -0.12948519 -0.0011543601 0.021259287 0.055457383 0.020403838 0.01409617 -0.057781663 -0.048962608 -0.053349875 -0.034166154 -0.049022917 0.04997925 0.05412718 -0.05795615 -0.072638944 0.025110343 -0.0029925867 -0.007747067 0.041897252 -0.049068727 -0.06564275 0.015906146 -0.00046635792 0.0111758625 -0.03163264 -0.0856422 0.026151698 0.042568065 -0.11100909 -0.048748374 -0.036140524 -0.012221812 -0.04232755 0.06477728 -0.038957804 -0.027793128 -0.045839075 -0.03372461 -0.047913328 -0.016067084 -0.09870133 -0.039020218 -0.022721462 0.030608607 -0.038489014 0.012369851 -0.027046472 0.008891379 -0.030241683 0.024018776 0.0131402025 0.04486549 0.027426403 0.0053954264 -0.043236483 -0.038629834 0.038299825 -0.032070912 0.007029468 -0.035880916 -0.019873288 -0.04229109 0.024360131 -0.034799956 -0.029340917 -0.051421825 0.025330666 -0.12185402 0.023866896 0.06554543 0.004026355 -0.029202959 -0.040241323 -0.015708255 -0.07361172 -0.04023423 -0.030532543 0.08497797 -0.041817293 0.025505498 -0.026327623 -0.052496605 -0.0039954092 0.10886155 0.005551247 -0.010507202 0.0960658 0.023501556 -0.033988643 -0.040743537 0.020090543 -0.013740598 0.11155714 -0.031060312 0.033015225 -0.0104735065 -0.06019623 -0.03454226 -0.0100189 0.021957615 -0.040048465 -0.08005139 -0.113904595 0.03559082 -0.089735635 0.08383302 -0.027742753 -0.011887563 -0.008747291 0.065134704 -0.053359363 0.0031077918 -0.015286741 0.048993364 0.013027582 -0.04132962 0.048811298 0.06854269 0.09519331 0.08437386 0.00761055 -0.06751109 0.01320908 -0.015901996 0.10631953 0.05186847 -0.041591704 -0.014552035 -0.020914722 -0.031622346 0.0028236844 -0.004914754 -0.053557955 0.04404279 0.03577301 -0.020992063 -0.04103375 -0.02433623 0.0081327045 -0.0916189 0.05814793 -0.010440983 0.061984174 -0.04556584 0.036320787 -0.017996982 -0.08920397 0.044552892 0.041390616 -0.059692323 0.018449074 0.07231178 0.049904488 -0.050659373 -0.086217746 -0.06416909 0.054873377 0.03775146 -0.05130381 -0.060693607 -0.030473538 -0.011796237 -0.01569824 -0.029757608 0.0021019094 0.09554218 -0.00084759295 0.074394 -0.008720014 -0.08456424 -0.035615053 0.06752518 -0.080283895 -0.074135944 0.02880232 0.05022224 -0.059812322 0.045713853 -0.004301667 0.018194959 -0.041989315 -0.001665825 0.044069648 0.0084495405 -0.030292239 0.02644179 0.00726759 -0.04010912 0.061936907 -0.009299878 0.012121667 -0.012357978 0.020878073 -0.110513575 0.070453525 0.032533515 0.0025718696 0.026698928 0.05378587 -0.06340373 0.10255031 -0.009517934 0.007860655 0.03237416 -0.111291274 0.0026260978 -0.004799448 -0.0037594326 0.013579084 0.024041615 0.052129015 -0.004279294 -0.01727425 -0.05499 0.033564914 -0.06404789 0.051375285 -0.008402547 -0.023788385 0.019812873 -0.049546607 0.04299402 -0.029316144 -0.029976629 -0.026651416 0.03381619 -0.05125145 0.017232249 -0.06850503 0.026456472 -0.007824329 0.0509907 -0.034745283 0.01943702 -0.005770267 -0.01984015 0.1214304 -0.05877477 -0.039880764 -0.038755488 0.05573149 0.0052887658 -0.03741617 -0.018433407 -0.02187323 0.049015634 -0.021788217 0.022498135 -0.03413293 0.03553031 0.008932744 -0.015473709 -0.07071278 0.11679031 0.07709194 -0.012339176
735 -0.0064484 0.096753806 0.036304213 0.08526293 0.026781902 0.11067094 0.0934604 -0.018452615 -0.07087464 0.012252509 -0.018467281 0.003131738 0.059997562 0.054178134 0.0031962413 -0.0021252292 -0.0014091628 -0.030216683 0.023624158 -0.012883437 0.031895705 -0.051890418 -0.039516933 0.01751633 -0.012094654 0.020656021 0.07913447 -0.088572174 0.022929117 0.08159047 -0.01989221 0.039953787 -0.018879574 -0.06762373 -0.0137116965 0.024708956 0.002504989 -0.016496323 -0.043995798 -0.095960826 0.029459976 0.020121943 -0.018393379 0.035813127 -0.10831674 -6.661378e-05 -0.089599565 -0.034030005 0.035968285 0.07024274 -0.040164195 -0.06746966 -0.037885066 0.024109898 -0.09829704 0.08065643 0.03973114 -0.06638967 -0.098259 -0.01110273 -0.0061846124 -0.04800523 -0.0005535232 -0.008384648 -0.027416091 -0.036854066 0.053977706 0.020303631 0.010870341 -0.02791631 -0.0237534 -0.017769359 -0.05704326 -0.07159853 0.066814646 -0.02006032 0.020032812 0.14581694 -0.054874912 -0.01739149 0.037097678 -0.0212426 0.018789068 -0.058648292 -0.021759981 -0.025192074 -0.033440907 -0.0051220916 -0.0020607794 0.046615195 -0.020697309 0.0020188577 -0.013675585 0.030445706 0.038309257 0.09757834 0.0025601685 -0.027422361 -0.003075478 0.00475307 0.01335603 0.010652449 0.028347064 0.020368978 0.03469538 0.011302402 0.021539867 -0.034226153 -0.07504237 -0.0608802 0.053993944 -0.04572146 0.0043338323 0.044470914 0.013341498 -0.03242841 -0.03659378 -0.022961378 0.0039541274 0.0012623873 -0.029797282 0.01190529 -0.040781416 0.042383417 -0.028161567 -0.03921365 0.057416633 0.01880346 -0.010501772 0.04271032 0.00034805946 0.018995438 0.024187326 -0.001196539 0.08990013 -0.004845232 0.10287805 -0.017727848 -0.01280133 -0.008835502 0.017997853 -0.043231893 -0.01169097 0.008941324 -0.060846608 0.011959002 -0.14749128 -0.0056756274 -0.004980121 0.016666338 -0.02436716 -0.055115297 0.028568309 -0.0021278113 -0.007316347 0.055880446 0.0696413 0.033971254 0.004586813 0.056846414 -0.03787542 0.047383092 0.068021685 -0.065986134 -0.094473034 0.024646709 0.028209526 0.027376398 0.06613414 0.045204744 -0.105993 -0.027206887 -0.025203897 -0.06899961 0.0037145987 -0.03797434 0.010044176 0.010088005 0.05208208 0.0039746836 0.0021011783 -0.042166054 -0.018815102 -0.065373756 0.04419841 -0.031800594 0.0058744 -0.026158635 0.054209083 -0.023558255 -0.024309304 -0.010492127 -0.058259778 -0.028783277 0.02690387 0.11218743 0.017175283 -0.0043458138 -0.017522268 0.008321011 0.060253248 0.006323562 -0.006767988 6.210047e-05 0.015520739 0.013501462 -0.01963617 0.007848673 0.04710608 0.10516449 0.01000966 -0.054945845 0.02366343 -0.05479641 0.0033732122 0.04405406 -0.04833033 0.028761562 -0.009195363 0.08860534 0.017310768 0.120199144 -0.043580357 -0.01635818 -0.046136446 -0.043107998 0.056848288 0.10755522 -0.012182883 -0.039240323 0.041723967 -0.03334471 0.020378806 0.069538936 -0.024210893 -0.050492287 0.03584761 -0.015438125 0.01705165 -0.02667397 0.066838816 0.016027028 -0.040078774 -0.06972346 0.08021549 -0.025883242 -0.004992529 -0.016489927 0.01355093 -0.009338798 0.011055386 0.014443188 -0.030192465 -0.09122816 0.01303423 0.0142444875 -0.05069981 0.010621487 0.034182254 -0.026574448 -0.027058627 -0.02456997 0.0034762088 0.04278105 -0.054022502 0.0025207475 -0.05411488 -0.047247954 -0.04004662 -0.023910787 -0.065625064 0.014343987 -0.015880937 0.0012373198 -0.047928847 -0.032649457 -0.036359403 0.024510803 0.0075161117 -0.00044711307 0.0044287704 0.045257375 -0.08910925 0.07203669 -0.022263214 -0.030971684 -0.012673723 -0.086749524 -0.006212162 -0.0262605 0.001065678 0.012910206 -0.031344898 0.05759731 0.028781593 0.032570466 -0.03593596 0.11363766 -0.01736905 0.018976217
1596 0.00058357976 -0.03716158 0.0010726936 0.0922586 0.101082325 0.052879125 0.020757385 0.027605075 0.037447542 0.08987251 -0.00055230805 -0.003639645 -0.032866947 0.03187696 0.034424923 0.042385947 -0.04958672 0.042385653 -0.018697444 0.004876243 0.020060018 0.023081828 -0.09118143 -0.009903447 -0.015928129 -0.010568868 0.024336029 6.6062436e-05 -0.008401997 0.123045236 0.044484027 0.02154243 0.031325847 0.030762536 0.042615213 -0.016126838 -0.0029053367 0.078338206 -0.029005356 -0.064171374 -0.052530736 0.015525149 0.024899218 0.0022714809 -0.10202931 0.055172555 -0.05627833 0.0943634 -0.057278875 -0.0017982163 -0.036848497 0.027399573 -0.05506236 -0.01651385 -0.025973797 0.004806513 0.0010776017 -0.020093985 -0.05475149 -0.12136935 -0.035718277 0.040046114 0.009957808 -0.00031764712 0.016750332 0.06498908 -0.010162301 -0.021002794 -0.093666464 -0.030926403 -0.015037809 -0.06008994 -0.05970089 0.062713064 0.041934535 0.060433548 -0.12931016 0.006207763 -0.01897771 -0.08051878 0.046062224 0.043681473 -0.016907856 0.018834397 -0.030015014 -0.0024868436 0.0041195825 0.014100299 -0.022862595 -0.018271323 -0.104145326 0.09829359 -0.00568254 0.003544474 0.046400983 0.021115884 -0.0040307343 0.023824608 -0.045753278 0.017612163 0.06962434 -0.0120326225 0.020001585 0.0048953784 -0.02776538 0.02863228 -0.01696547 0.029865054 -0.05887281 -0.05688625 0.02512101 -0.0063032354 0.008724276 0.014234058 0.022862583 0.018474951 0.012281268 0.08475016 -0.010411275 -0.0021876954 0.03346796 0.011042569 0.04851729 0.0021206192 -0.033758767 0.043955136 0.06693928 0.010268941 0.044413563 -0.011579331 -0.027631069 -0.039876554 0.0450398 -0.011344708 0.0016114796 -0.0024305834 0.08569892 -0.019078154 -0.033671934 -0.034732025 -0.046910945 -0.043886866 0.043542337 0.06499798 -0.08255109 -0.07649331 -0.11759941 0.0446621 0.10712561 0.009347329 -0.02235614 0.0030810833 -0.0027960264 -0.0013128445 0.010806854 0.06639409 0.033034608 -0.038114216 -0.039097738 -0.04955914 -0.0060651363 0.064900935 0.061417237 -0.020775564 0.026105411 -0.038322214 -0.00494832 0.004338109 0.05911196 0.020139506 0.05261842 0.0182917 -0.016552916 -0.004016771 0.0369534 -0.034030564 -0.0069868853 0.06735782 0.07412123 -0.035369508 -0.085948676 -0.029389823 0.052946553 -0.08269707 0.03257314 -0.06257483 0.059904967 -0.08020963 0.09444821 -0.056674484 -0.033433083 -0.042967644 0.048137575 -0.039088458 -0.01932144 -0.08201358 0.019954536 0.0225316 -0.009615818 -0.05338522 0.057009332 0.015617983 0.06562212 -0.030437745 0.005417302 0.027665678 0.018764405 0.019463021 0.03739379 0.04982273 -0.05618081 0.034435216 0.011551835 -0.07845174 -0.0145812305 0.009196954 -0.05943857 -0.15721269 0.018584713 0.027508106 0.00014486164 -0.031198388 0.018541943 0.07395903 -0.019890621 -0.025012366 0.0048715062 0.009391195 -0.03769775 -0.05503107 -0.019529548 0.08464749 0.030793622 0.0041691475 -0.038895212 0.000116062816 0.06380979 0.056708656 -0.022903733 0.056348186 -0.0035809032 0.014388995 -0.029374192 -0.054133136 0.07960805 0.0010317788 0.07972554 0.0092918705 -0.059465125 0.05832122 0.054542154 0.016451161 -0.017460171 0.001578195 0.03169052 0.012502508 -0.07391029 0.021560006 0.050852936 0.008188205 -0.03640138 -0.009143634 0.0037379814 0.03350796 -0.03710722 -0.069938436 0.019817404 0.025722148 -0.010119075 0.02357119 -0.032715514 -0.019948313 -0.051432382 -0.012857675 0.033950783 0.058644064 -0.057283234 0.020204725 0.0040048193 -0.049856685 0.103972584 -0.025955029 -0.020834584 0.034164734 0.014854887 -0.09415534 -0.075970486 -0.037864804 0.003928112 -0.040346432 -0.004032036 0.040662732 -0.077340335 0.014137769 -0.063426726 0.11527176 -0.008049027 0.11066821 0.03670869 -0.020347096
628 0.029284975 0.030877862 0.03216666 0.06035112 -0.015183306 0.019179456 0.06397523 -0.03496235 0.045396447 -0.007168079 -0.012459153 0.0008907309 0.034143474 0.020259112 -0.0043594576 0.02458788 -0.05599931 0.020172942 -0.024771241 -0.0081251105 -0.06277043 0.017964046 0.013841635 0.033921126 -0.023737362 -0.06271553 0.033051357 -0.0743193 -0.006097408 0.112749405 0.12549141 0.012156388 0.0043520806 -0.002575403 -0.015040448 0.038813323 -0.012125466 0.07964419 0.005802812 -0.011916436 -0.08571592 -0.0851078 0.05610469 -0.036365062 -0.07840563 0.02500765 -0.03270331 0.020370815 0.02508858 0.014648823 -0.05788341 -0.06142111 -0.024683088 0.03620128 -0.049930535 0.054337233 0.086297005 -0.068745434 -0.028013766 0.021172943 0.014628632 0.013384385 -0.070805 -0.031130098 -0.01167714 -0.012512415 -0.0022568107 -0.006278583 -0.042297795 -0.06017362 0.0138211455 -0.025715468 0.034544278 -0.0093637835 -0.01842139 0.059099145 -0.016590126 -0.020295901 0.011380047 -0.0372848 0.04709477 -0.027845705 -0.028145913 -0.08132177 -0.007947924 -0.034775697 -0.026793867 0.0064254766 -0.061284505 -0.016904 0.07493009 -0.018067967 -0.0030221604 0.0306783 0.037893593 0.0022681663 0.053168923 0.06249773 0.05061179 -0.012378013 0.015633384 -0.034924842 -0.013489166 -0.024455577 0.06913641 0.00023762137 0.007752626 -0.021759994 0.02144785 -0.07361531 -0.074360766 -0.044534676 0.02095039 0.03321085 0.006386377 -0.011887807 0.018347898 -0.033718266 -0.09687936 0.018297581 0.0008779876 0.06306785 -0.05604165 0.086868785 -0.005388841 0.038023986 0.06722147 0.052328017 -0.054528967 -0.023058813 0.10830988 0.02638665 -0.02339466 -0.02189957 -0.025077479 -0.015622495 0.08080246 -0.061957296 -0.010766095 0.049543448 -0.015880348 -0.009317407 0.025246914 0.020104786 -0.038368575 -0.08085809 -0.15467457 0.09199427 0.007828519 0.07982704 -0.025869746 -0.061597638 -0.0462612 0.082723446 0.027529003 -0.062048774 0.008297089 -0.03516931 0.0012795134 0.038252354 -0.07550219 0.072674416 0.023017509 0.07777208 -0.017886598 -0.034955204 0.017312007 -0.006841167 0.021649309 0.09438865 -0.020847978 -0.03307401 -0.03866397 0.0037514716 0.0046766996 -0.05304002 -0.020474624 0.095138796 0.09835976 0.015164666 -0.0343469 -0.0479176 0.036052417 -0.0865338 -0.042409718 0.035493508 0.105264366 -0.001712637 -0.019496262 -0.008204391 -0.01713726 0.023897428 -0.08657776 -0.03646735 -0.052683324 0.025087858 0.032493297 -0.092473924 -0.019778986 -0.047521435 0.028596688 -0.0017310459 0.0074244733 0.00076111406 -0.013693901 0.057905152 -0.024750732 -0.03136451 0.06844069 0.06082173 -0.029555107 0.028986499 -0.013430018 -0.05106454 -0.05915103 0.012973455 -0.03559857 -0.08288558 0.018687218 -0.026262678 0.011978552 0.07757959 -0.0023195446 0.106196016 0.013201753 -0.011438931 0.03517749 0.11108742 -0.023997214 -0.039320346 -0.00444506 -0.0040176213 0.029414821 0.016097832 0.041769467 -0.016600724 -0.018503664 -0.036882527 -0.0007366352 -0.022103513 0.012486223 -0.021900184 -0.050948486 -0.06221898 0.082857 -0.04231784 0.04796328 0.09063782 0.032215007 0.08908203 0.05027653 0.037722893 0.056749333 -0.021659343 0.05729454 0.012984733 0.010029933 -0.021681402 0.0467804 0.0042935107 -0.040099405 -0.02346693 0.02231189 0.022511788 -0.03463232 0.030010216 -0.021554716 0.063845575 0.023406671 0.023388736 -0.009069833 -0.050791502 -0.07865377 -0.0018296295 0.06562756 0.09500943 -0.016803496 0.008547956 -0.03564055 -0.033592656 0.13325389 -0.025013076 -0.039144978 -0.06148922 -0.067032225 0.041075498 0.10691358 -0.032325696 0.07003951 -0.032772403 -0.058659103 0.040518902 -0.050795794 -0.05879911 0.09067436 0.029437678 0.03955622 0.08803834 0.054174155 0.09797286
